tree
version=v4
num_class=5
num_tree_per_iteration=5
label_index=0
max_feature_idx=22
objective=multiclass num_class:5
feature_names=font_size_zscore font_size_percentile font_size_ratio_max font_size_ratio_median is_bold is_italic y_position_normalized x_position_normalized space_above_ratio horizontal_alignment text_length_zscore word_count_zscore starts_with_number case_pattern text_density_around follows_whitespace text_uniqueness element_count is_bullet_list is_table_content bbox_aspect_ratio semantic_type_table_block semantic_type_text_block
feature_infos=[-1.204033691091086:5.761862493997346] [-0.32723768164071643:0.99999523811812996] [0.21722845940288321:1] [0.60006248950958252:2.9021740059996826] [0:1] [0:1] [0.088691538030450906:0.90750915835602119] [0.064839930316201999:0.78594870972477537] none none [-1.0976668154872316:6.356943632159803] [-0.71078490491911217:6.8393886288990426] [0:1] [0:3] none none none [1:39] [0:1] [0:1] [0.58042388742714091:39.477551602024498] [0:1] [0:1]
tree_sizes=1862 445 748 835 643 1882 542 853 844 649 2203 544 754 1052 1244 1267 448 943 846 1248 1985 546 951 848 954 1381 544 950 1063 754 1785 546 1162 966 960 1870 547 1057 963 856 1772 549 1053 956 851 1168 546 1058 962 856 1895 346 849 1363 854 1870 346 951 1252 951 1883 346 857 1256 1147 1888 345 950 1470 1054 1677 346 851 1160 852 1871 543 1059 1065 654 1378 548 1061 957 756 1486 549 1060 1064 753 1581 547 836 1059 760 1598 547 1060 861 634 1590 346 1271 1245 749 1472 347 1485 1065 751 1286 347 1382 1070 857 1289 346 1273 1046 959 1495 449 1064 1064 961 1566 347 1476 1478 651 1157 346 1070 1168 762 1891 347 967 1273 654 1783 346 1066 1159 761 1979 347 1177 1047 655 1793 551 1059 1382 648 2234 548 1065 1345 721 1976 549 1161 1174 735 2013 553 1386 1379 658 2188 447 865 1262 756

Tree=0
num_leaves=17
num_cat=0
split_feature=11 12 10 1 0 7 18 0 7 7 3 10 7 20 5 20
split_gain=5.64461 5.77588 6.43365 11.7107 4.70381 28.8755 4.45232 4.76326 9.26785 4.10349 10.5292 8.22126 3.51922 1.07697 0.438637 0.277973
threshold=-0.51186612709319002 1.0000000180025095e-35 -0.37284995110861191 -1.0000000180025095e-35 -0.19332936671497261 0.21983075162113863 1.0000000180025095e-35 -0.42678383822399552 0.11592153162738077 0.17179232329324959 1.2519292040972998 0.084789521098610363 0.15692909714443229 8.0354790536387899 1.0000000180025095e-35 8.2111191912166088
decision_type=2 2 2 2 2 2 2 2 2 2 2 2 2 2 2 2
left_child=12 4 13 -4 5 6 7 8 -2 10 11 -6 -1 -3 -9 -11
right_child=1 2 3 -5 9 -7 -8 14 -10 15 -12 -13 -14 -15 -16 -17
leaf_value=-1.5751274085957214 -1.6794295628882361 -1.581945383383998 -1.6159138209093142 -1.3034694594883862 -1.3077298802809012 -1.3005196604765197 -1.6832261058919793 -1.6072946993159447 -1.3104662516194117 -1.6560140393712399 -1.6755924387770957 -1.601260784137905 -1.3217421355217249 -1.6607663478809844 -1.6529866552081749 -1.6812873498418734
leaf_weight=0.94573346525430568 0.7493333220481817 2.0677805691957474 1.6069099679589274 1.3753586523234833 1.0433755293488531 1.7547679357230652 7.345754437148571 2.2594380602240598 0.90109704807400703 5.2975019477307823 4.6382784135639668 1.4559830762445924 0.56911392509937286 2.2139648087322712 2.7716405801475048 14.896556593477724
leaf_count=7 1 14 8 29 22 37 12 12 19 14 9 8 12 6 8 11
internal_value=-1.60944 -1.62533 -1.55975 -1.47047 -1.63651 -1.60197 -1.64036 -1.59362 -1.47747 -1.65658 -1.60498 -1.47364 -1.47123 -1.6219 -1.63186 -1.67499
internal_weight=0 50.3777 7.26401 2.98227 43.1137 15.782 14.0273 6.68151 1.65043 27.3317 7.13764 2.49936 1.51485 4.28175 5.03108 20.1941
internal_count=229 210 57 37 153 89 52 40 20 64 39 30 19 20 20 25
is_linear=0
shrinkage=1


Tree=1
num_leaves=3
num_cat=0
split_feature=7 20
split_gain=160.404 42.7115
threshold=0.31232211792391112 11.770195556300747
decision_type=2 2
left_child=-1 -2
right_child=1 -3
leaf_value=-1.6892258419701411 -1.6860543802011214 -1.3133284301487183
leaf_weight=37.674225699156523 2.3143966160714617 11.903966017067431
leaf_count=179 34 16
internal_value=-1.60944 -1.37434
internal_weight=0 14.2184
internal_count=229 50
is_linear=0
shrinkage=1


Tree=2
num_leaves=6
num_cat=0
split_feature=3 6 6 11 12
split_gain=116.245 10.5251 36.0421 3.64761 11.4832
threshold=1.2519292040972998 0.20511099304815733 0.17420789930555558 -0.48728391950238931 1.0000000180025095e-35
decision_type=2 2 2 2 2
left_child=1 2 -1 4 -3
right_child=-2 3 -4 -5 -6
leaf_value=-1.6884750909051833 -1.3284070252575735 -1.6863674133267399 -1.3995145285648523 -1.6891516600511549 -1.3542353463684194
leaf_weight=8.2588472291827184 8.2521517872810346 2.5554331764578815 4.0853452347218981 27.896625261753801 0.84418564289808262
leaf_count=21 26 28 14 137 3
internal_value=-1.60944 -1.65495 -1.5927 -1.67962 -1.60255
internal_weight=0 43.6404 12.3442 31.2962 3.39962
internal_count=229 203 35 168 31
is_linear=0
shrinkage=1


Tree=3
num_leaves=7
num_cat=0
split_feature=0 7 6 11 20 11
split_gain=58.485 32.2831 31.9158 25.9159 6.50591 6.95778
threshold=-0.31073336013127556 0.15651559518053643 0.1888888869622741 1.3972845251406636 6.7209712969566509 1.6361894944416897
decision_type=2 2 2 2 2 2
left_child=1 2 -1 -3 5 -4
right_child=-2 3 4 -5 -6 -7
leaf_value=-1.6862822345654243 -1.6891759411731297 -1.6884090468716102 -1.5621079692761164 -1.3168861478442522 -1.3191129480851087 -1.3289285650772542
leaf_weight=2.4851307682693031 30.490278773009777 7.7257213741540891 2.0270499102771269 1.3697791658341882 6.3774239681661129 1.417205326259136
leaf_count=8 101 80 15 3 18 4
internal_value=-1.60944 -1.51684 -1.4326 -1.63073 -1.36795 -1.46238
internal_weight=0 21.4023 12.3068 9.0955 9.82168 3.44426
internal_count=229 128 45 83 37 19
is_linear=0
shrinkage=1


Tree=4
num_leaves=5
num_cat=0
split_feature=2 10 7 20
split_gain=56.7601 76.9996 26.5662 18.9028
threshold=0.34508587299354282 -0.40150701032191422 0.17179232329324959 6.5108145278789058
decision_type=2 2 2 2
left_child=1 -1 3 -3
right_child=-2 2 -4 -5
leaf_value=-1.6886883589002581 -1.6891199950206544 -1.4286081526284753 -1.3122944955959888 -1.6865729637652846
leaf_weight=10.622622914612295 25.111593917012215 5.1211883090436485 8.2948351167142373 2.7423480749130249
leaf_count=51 129 14 16 19
internal_value=-1.60944 -1.52187 -1.41205 -1.519
internal_weight=0 26.781 16.1584 7.86354
internal_count=229 100 49 33
is_linear=0
shrinkage=1


Tree=5
num_leaves=17
num_cat=0
split_feature=7 12 10 1 13 0 2 18 7 17 3 7 13 11 7 10
split_gain=17.3562 4.80819 4.77457 6.99917 4.24913 7.93027 7.23663 2.50873 5.06251 5.84047 11.1465 1.49794 0.969712 0.825243 0.539954 0.0890175
threshold=0.56381435020297188 1.0000000180025095e-35 -0.37284995110861191 -1.0000000180025095e-35 1.5000000000000002 1.5546426651326473 0.32771534644093753 1.0000000180025095e-35 0.17179232329324959 2.5000000000000004 1.4276453636757591 0.18121489979862387 1.0000000180025095e-35 0.16396394601293213 0.11682552191612317 -1.0000000180025095e-35
decision_type=2 2 2 2 2 2 2 2 2 2 2 2 2 2 2 2
left_child=1 4 14 -4 7 6 11 8 9 10 -1 -6 15 -11 -3 -10
right_child=-2 2 3 -5 5 -7 -8 -9 12 13 -12 -13 -14 -15 -16 -17
leaf_value=0.24292909155778661 0.24331232314032408 -0.051026412937958912 -0.0031236572417147868 0.23260542873422449 -0.027557545429290852 -0.061580975699273857 0.2504023729505076 -0.07032412810492103 -0.011943076493993773 -0.066626057996131471 -0.049192063823334638 0.083101930715861416 -0.071143730080665685 0 0.0068300477699164974 -0.036973873868606157
leaf_weight=1.7381229065358659 1.6215764805674542 1.5621360614895818 1.5520234294235709 1.5538556650280941 1.5356377400457852 3.7086591124534607 1.3078532740473745 12.363240264356135 2.5956576913595191 2.117927324026823 1.5082824826240537 1.4424310699105261 8.6288411878049374 2.8668612241744995 2.5862893797457218 2.3906360045075399
leaf_count=31 29 4 8 27 6 8 24 16 11 4 4 14 7 14 15 7
internal_value=0 -0.0186973 0.0410451 0.11536 -0.0290972 0.0229814 0.096943 -0.0414002 -0.0247258 0.0243779 0.107308 0.0252067 -0.0546853 -0.0293664 -0.0143519 -0.024986
internal_weight=0 49.4585 7.2543 3.10588 42.2042 7.99458 4.28592 34.2096 21.8463 8.23119 3.24641 2.97807 13.6151 4.98479 4.14843 4.98629
internal_count=229 200 54 35 146 52 44 94 78 53 35 20 25 18 19 18
is_linear=0
shrinkage=0.08


Tree=6
num_leaves=4
num_cat=0
split_feature=7 6 2
split_gain=120.813 4.86437 21.4533
threshold=0.31232211792391112 0.13636878042510059 0.34508587299354282
decision_type=2 2 2
left_child=-1 -2 -3
right_child=1 2 -4
leaf_value=-0.078129483436285008 0.23584961548718533 0.20696394010211555 -0.076509802294887616
leaf_weight=35.211610555648804 6.9099684730172184 7.610165633261202 2.1467882990837097
leaf_count=179 2 17 31
internal_value=0 0.182977 0.144112
internal_weight=0 16.6669 9.75695
internal_count=229 50 48
is_linear=0
shrinkage=0.08


Tree=7
num_leaves=7
num_cat=0
split_feature=3 7 6 10 5 6
split_gain=82.8081 12.0725 23.0135 11.608 3.56541 8.63484
threshold=1.2519292040972998 0.14711606892105797 0.1888888869622741 -0.48604977312558734 1.0000000180025095e-35 0.21380101791535969
decision_type=2 2 2 2 2 2
left_child=1 2 -1 -4 -3 -6
right_child=-2 4 3 -5 5 -7
leaf_value=0.21995053147236449 0.21273966192011984 -0.07815444371484985 0.21109515711256671 -0.077850392457401552 0.19931512733456672 -0.075094076356449935
leaf_weight=2.9023657478392106 9.9615501239895803 27.689288992434744 0.96474087983369816 6.9890457466244698 1.0076943039894097 2.3381123021245003
leaf_count=9 26 129 3 41 4 17
internal_value=0 -0.0433196 0.0289368 -0.0412037 -0.0687296 0.00809274
internal_weight=0 41.8912 10.8562 7.95379 31.0351 3.34581
internal_count=229 203 53 44 150 21
is_linear=0
shrinkage=0.08


Tree=8
num_leaves=7
num_cat=0
split_feature=0 7 6 6 6 20
split_gain=49.4371 24.0358 17.4027 7.95602 15.3862 0.959559
threshold=-0.31073336013127556 0.15692910961076323 0.1888888869622741 0.4809509624134411 0.70010476160531099 4.4767773054133047
decision_type=2 2 2 2 2 2
left_child=1 2 -1 -4 -5 -6
right_child=-2 -3 3 4 5 -7
leaf_value=-0.017003602863495507 -0.078075432747038528 -0.076611051548847633 0.2209901207849724 -0.07583248892381024 0.24600243936424465 0.14588045214411291
leaf_weight=4.2706023566424909 28.506427273154259 4.8653290234506121 7.6943573094904405 2.1115381121635437 1.5517901852726939 2.2330940589308739
leaf_count=11 101 73 19 8 3 14
internal_value=0 0.0799317 0.122891 0.167044 0.0947104 0.190645
internal_weight=0 22.7267 17.8614 13.5908 5.89642 3.78488
internal_count=229 128 55 44 25 17
is_linear=0
shrinkage=0.08


Tree=9
num_leaves=5
num_cat=0
split_feature=2 10 7 17
split_gain=47.2725 56.3802 14.5901 13.7916
threshold=0.34508587299354282 -0.40150701032191422 0.17179232329324959 3.5000000000000004
decision_type=2 2 2 2
left_child=1 -1 3 -3
right_child=-2 2 -4 -5
leaf_value=-0.07762425265834183 -0.077993642344979311 -0.075442886664269584 0.22269691230210359 0.14598018696730419
leaf_weight=9.9556688107550162 23.446856841444969 2.5331322997808474 10.108880031853912 5.8202259391546249
leaf_count=51 129 18 16 15
internal_value=0 0.0753033 0.157972 0.0783089
internal_weight=0 28.4179 18.4622 8.35336
internal_count=229 100 49 33
is_linear=0
shrinkage=0.08


Tree=10
num_leaves=20
num_cat=0
split_feature=6 2 10 6 7 12 13 17 13 6 0 20 20 0 7 20 6 7 7
split_gain=13.3336 11.9175 6.36573 3.44257 5.62247 2.47957 2.97176 2.97416 2.29051 8.61321 6.29134 0.809059 0.73042 3.63874 1.8253 0.625807 0.849191 0.434728 0.619705
threshold=0.57414089549671532 0.34508587299354282 1.6434466451434233 0.71536193231139522 0.14712497611450995 1.0000000180025095e-35 1.5000000000000002 7.5000000000000009 1.5000000000000002 0.24693429349648827 2.1928745619170473 3.1862699724950252 12.323258556358189 0.67249812767578809 0.14705834357567085 14.550718552104097 0.81343826139816133 0.14713965521918396 0.11592158149270447
decision_type=2 2 2 2 2 2 2 2 2 2 2 2 2 2 2 2 2 2 2
left_child=5 3 -3 4 -2 8 7 -7 11 -10 -11 -1 17 14 -14 16 -5 18 -13
right_child=1 2 -4 15 -6 6 -8 -9 9 10 -12 12 13 -15 -16 -17 -18 -19 -20
leaf_value=-0.001790445103642945 -0.031845885892255905 0.210805144364411 -0.064569822899114615 0.03977951023595748 0.25334786919385183 0.20977283659345752 -0.028916494099007994 -0.00065451113113597294 -0.063371044512063643 0.21565668007965827 -0.066845986965516441 -0.068292633968601954 -0.066382023640751187 -0.07195786780506111 0.079857296879538811 -0.053443331932807217 -0.037174528067117976 -0.072264837028557433 -0.014506081456730194
leaf_weight=2.2844796143472221 0.86705306172370711 3.6403898634016514 0.58051908016204823 1.6625671684741976 0.7916291318833828 0.83475518226623469 2.3542404696345329 0.76279827952384949 4.2347558885812751 1.5622644871473315 0.67890566587448109 3.0206399969756665 0.66827970743179266 4.9994155541062355 2.0410552136600018 2.4823735058307648 1.9220220372080801 11.668803989887236 2.9537330158054829
leaf_count=12 3 59 1 12 15 14 9 4 9 26 1 6 1 2 19 6 6 11 13
internal_value=0 0.0644134 0.171683 0.00456531 0.105356 -0.0322549 0.0268738 0.1099 -0.0392511 0.00297915 0.128743 -0.0492788 -0.0533885 -0.0314535 0.0417873 -0.0229726 -0.000325733 -0.0626305 -0.0427056
internal_weight=0 11.9466 4.22091 7.72564 1.65868 38.0641 3.95179 1.59755 34.1123 6.47593 2.24117 27.6364 25.3519 7.70875 2.70933 6.06696 3.58459 17.6432 5.97437
internal_count=229 102 60 42 18 127 27 18 100 36 27 64 52 22 20 24 18 30 19
is_linear=0
shrinkage=0.08


Tree=11
num_leaves=4
num_cat=0
split_feature=7 20 20
split_gain=95.611 19.6436 0.0245984
threshold=0.31232211792391112 11.770195556300747 12.825488522025594
decision_type=2 2 2
left_child=-1 -2 -3
right_child=1 2 -4
leaf_value=-0.076643855262342075 -0.074702123591070119 0.19493627018741616 0.16678745590099397
leaf_weight=32.79780126735568 2.1296508722007301 7.7096815109252956 8.5464747175574285
leaf_count=179 34 1 15
internal_value=0 0.150989 0.180939
internal_weight=0 18.3858 16.2562
internal_count=229 50 16
is_linear=0
shrinkage=0.08


Tree=12
num_leaves=6
num_cat=0
split_feature=3 6 6 10 10
split_gain=62.7037 8.69264 22.6893 4.06367 7.66105
threshold=1.2519292040972998 0.20511099304815733 0.17420789930555558 -0.48913010377171978 -0.49221043441785212
decision_type=2 2 2 2 2
left_child=1 2 -1 4 -3
right_child=-2 3 -4 -5 -6
leaf_value=-0.076139436983764922 0.1723607029492652 -0.073523294732400407 0.14268233231675997 -0.076541490859373673 0.19899601308769732
leaf_weight=7.2856343016028386 11.203684505075215 1.7591189332306387 5.1137026287615299 24.871780347079042 0.9839203953742971
leaf_count=21 26 28 14 139 1
internal_value=0 -0.0413481 0.0139958 -0.0663231 0.0246089
internal_weight=0 40.0142 12.3993 27.6148 2.74304
internal_count=229 203 35 168 29
is_linear=0
shrinkage=0.08


Tree=13
num_leaves=9
num_cat=0
split_feature=7 3 6 18 7 7 20 6
split_gain=31.119 21.351 10.3174 9.52427 9.65199 6.81238 6.34694 2.2464
threshold=0.15692752638673468 1.0014992504395681 0.1888888869622741 1.0000000180025095e-35 0.14712497611450995 0.14712518180897033 4.0661758405222752 0.17103356062763872
decision_type=2 2 2 2 2 2 2 2
left_child=1 2 7 4 -4 -6 -7 -1
right_child=-2 -3 3 -5 5 6 -8 -9
leaf_value=0.037733897923643289 -0.076483599196626464 -0.075634898406999357 -0.075390667400336953 0.18474296064299689 0.17881319985242122 0.17407630370574043 -0.076504288369982354 -0.074754198161126661
leaf_weight=2.1803268678486409 22.749025471508503 6.5237814337015143 2.3562485091388243 7.5437399595975867 3.8642533980309963 0.95478116348385844 1.7548371665179727 2.2231078334152699
leaf_count=10 114 40 16 14 11 3 15 6
internal_value=0 0.0499529 0.0894749 0.118509 0.0613959 0.111227 0.0118969 -0.0183601
internal_weight=0 27.4011 20.8773 16.4739 8.93012 6.57387 2.70962 4.40343
internal_count=229 115 75 59 45 29 18 16
is_linear=0
shrinkage=0.08


Tree=14
num_leaves=11
num_cat=0
split_feature=10 7 20 7 6 6 6 7 20 20
split_gain=27.7416 39.2948 7.98953 7.51878 10.1545 4.9134 12.971 3.20465 4.98358 1.49882
threshold=-0.40150701032191422 0.15651559518053643 3.7285211955035948 0.17856610273729923 0.84719867182428177 0.49992788680876149 0.51993368129537576 0.17179232329324959 4.2895194674320516 4.4767773054133047
decision_type=2 2 2 2 2 2 2 2 2 2
left_child=-1 5 -3 7 -5 -2 -7 8 -4 -10
right_child=1 2 3 4 -6 6 -8 -9 9 -11
leaf_value=-0.076459834828599235 -0.076203502122448225 -0.080041267167195479 -0.074111012566827422 -0.076207115449512863 0.18892497400928207 0.21826460306572457 -0.075095656105066785 0.1927788783699067 0.21006314909634302 0.098013046591525835
leaf_weight=17.408286057412624 10.93840481713414 1.0886713005602384 0.75563514232635753 2.144896011799573 1.5380908250808718 1.4153701066970814 2.7558764889836311 9.325093634426592 1.4571140371263029 2.411329161375761
leaf_count=86 41 6 1 34 1 1 26 7 2 24
internal_value=0 0.0476629 0.125038 0.138117 0.0344934 -0.0480371 0.0249048 0.16497 0.106572 0.143381
internal_weight=0 33.8305 18.7208 17.6322 3.68299 15.1097 4.17125 13.9492 4.62408 3.86844
internal_count=229 143 75 69 35 68 27 34 27 26
is_linear=0
shrinkage=0.08


Tree=15
num_leaves=11
num_cat=0
split_feature=7 20 11 1 20 10 11 10 20 7
split_gain=10.5427 7.22344 2.92695 2.55584 3.91645 5.93703 3.02461 3.01518 1.60197 1.13744
threshold=0.56381435020297188 23.039485428612061 -0.51186612709319002 0.42795839922092865 12.323258556358189 -0.25235885214513026 -0.354182904805943 -0.49221043441785212 11.512389751371602 0.15692909714443229
decision_type=2 2 2 2 2 2 2 2 2 2
left_child=1 2 9 4 7 6 -6 -4 -9 -1
right_child=-2 -3 3 -5 5 -7 -8 8 -10 -11
leaf_value=0.023501449153161449 0.17043007933732493 0.16028616011176525 0.18419105470497701 -0.06626600802303817 0.09476306361166581 0.19109548073419444 -0.037276791032341439 -0.021944029473021244 -0.06913438829819836 0.16666766085030438
leaf_weight=1.0148003734648217 1.9770068712532509 1.3898127861320961 0.36514721810817263 8.0423688888549787 1.5183890461921685 1.2703440897166718 3.7462455295026307 22.897277832031261 5.925283655524253 0.59560770541429509
leaf_count=7 29 20 6 10 16 20 12 95 5 9
internal_value=0 -0.015841 -0.0214942 -0.0254938 -0.016123 0.0393965 0.000585835 -0.0287364 -0.0318868 0.0822848
internal_weight=0 46.7653 45.3755 43.7651 35.7227 6.53498 5.26463 29.1877 28.8226 1.61041
internal_count=229 200 180 164 154 48 28 106 100 16
is_linear=0
shrinkage=0.08


Tree=16
num_leaves=3
num_cat=0
split_feature=10 20
split_gain=60.8131 34.4018
threshold=-0.41660562259009842 11.770195556300747
decision_type=2 2
left_child=1 -1
right_child=-2 -3
leaf_value=-0.074750275139670017 -0.075452563818563079 0.15678458635126066
leaf_weight=5.3303145766258266 27.377980276942253 17.206252053380013
leaf_count=50 166 13
internal_value=0 0.101801
internal_weight=0 22.5366
internal_count=229 63
is_linear=0
shrinkage=0.08


Tree=17
num_leaves=8
num_cat=0
split_feature=3 7 6 10 13 6 6
split_gain=49.2978 9.88112 14.1509 7.98615 2.40976 6.57275 0.0138622
threshold=1.2519292040972998 0.14711606892105797 0.1888888869622741 -0.48604977312558734 1.5000000000000002 0.21380101791535969 0.13636878042510059
decision_type=2 2 2 2 2 2 2
left_child=1 2 -1 -4 -3 -6 -2
right_child=6 4 3 -5 5 -7 -8
leaf_value=0.15597010589804103 0.16269782002545444 -0.07536647393882305 0.14799235619478981 -0.075311847738257484 0.14530208774940703 -0.073314410517861472 0.134194540958014
leaf_weight=3.5030535757541639 4.4706046581268293 23.118124820292 1.1715844236314295 6.1428687870502472 1.1985247023403633 2.9183395206928253 7.577044028788805
leaf_count=9 5 97 3 41 4 49 21
internal_value=0 -0.0396234 0.0247121 -0.0382393 -0.065322 -0.00772975 0.145731
internal_weight=0 38.0525 10.8175 7.31445 27.235 4.11686 12.0476
internal_count=229 203 53 44 150 53 26
is_linear=0
shrinkage=0.08


Tree=18
num_leaves=7
num_cat=0
split_feature=0 7 6 6 6 11
split_gain=36.3457 15.0336 9.54118 3.74901 8.99386 0.708886
threshold=-0.31073336013127556 0.15692910961076323 0.1888888869622741 0.4809509624134411 0.70010476160531099 -0.38451764483707063
decision_type=2 2 2 2 2 2
left_child=1 2 -1 -4 -5 -6
right_child=-2 -3 3 4 5 -7
leaf_value=-0.014936973626862636 -0.075224558485476531 -0.0736076857082439 0.15331528227490004 -0.073085437173042736 0.17345555252147046 0.09807626957313019
leaf_weight=4.1499480158090654 24.624639663845301 4.1933178678154936 9.2928668446838838 1.8799637332558621 1.9088235236704347 2.6417886838316917
leaf_count=11 101 73 19 8 3 14
internal_value=0 0.0628629 0.0919716 0.1204 0.0714006 0.132106
internal_weight=0 24.0667 19.8734 15.7234 6.43058 4.55061
internal_count=229 128 55 44 25 17
is_linear=0
shrinkage=0.08


Tree=19
num_leaves=11
num_cat=0
split_feature=10 7 20 7 6 6 6 7 20 6
split_gain=24.0785 31.1794 6.45236 5.34321 8.06077 4.4851 10.1551 2.24558 3.82233 1.51397
threshold=-0.40150701032191422 0.15651559518053643 3.7285211955035948 0.17856610273729923 0.84719867182428177 0.49992788680876149 0.51993368129537576 0.17179232329324959 4.2895194674320516 0.11224193284005828
decision_type=2 2 2 2 2 2 2 2 2 2
left_child=-1 5 -3 7 -5 -2 -7 8 -4 -10
right_child=1 2 3 4 -6 6 -8 -9 9 -11
leaf_value=-0.075119231294675418 -0.074841743910591618 -0.078500961167258895 -0.071397373584013518 -0.07479436089866591 0.15991954612597159 0.18068810637381641 -0.073579977760430626 0.16346458935842834 0.18624387081887139 0.079668233167958985
leaf_weight=16.177489873021841 10.157425098121164 1.0554636791348482 0.70946258306503551 2.0022728070616713 1.6599167585372927 1.5734169483184803 2.5731516443192959 10.038544856011866 1.5625341162085531 2.6033119857311249
leaf_count=86 41 6 1 34 1 1 26 7 2 24
internal_value=0 0.0433172 0.10872 0.119755 0.0312351 -0.0462325 0.0229523 0.141047 0.0928847 0.122326
internal_weight=0 33.9355 19.6315 18.576 3.66219 14.304 4.14657 14.9139 4.87531 4.16585
internal_count=229 143 75 69 35 68 27 34 27 26
is_linear=0
shrinkage=0.08


Tree=20
num_leaves=18
num_cat=0
split_feature=6 2 17 6 6 20 18 10 20 20 11 11 20 6 2 1 3
split_gain=10.0614 7.98316 3.60646 2.54045 2.86449 2.06699 8.01788 5.42376 3.78535 2.33371 1.16927 0.593284 0.572583 0.712055 0.52826 0.338845 0.0927548
threshold=0.57414089549671532 0.34508587299354282 4.5000000000000009 0.71536193231139522 0.61253911798650584 12.323258556358189 1.0000000180025095e-35 -0.46448745860266033 20.818786501596524 6.7209712969566509 1.0966386025805193 -0.40500223004353691 14.550718552104097 0.81343826139816133 0.36204742985771249 0.42795839922092865 0.95108695980806968
decision_type=2 2 2 2 2 2 2 2 2 2 2 2 2 2 2 2 2
left_child=5 3 -3 4 -2 7 8 9 -7 -1 11 -9 13 -5 -13 -16 -12
right_child=1 2 -4 12 -6 6 -8 10 -10 -11 16 14 -14 -15 15 -17 -18
leaf_value=0.16397328427331531 -0.012063168938535623 0.16612797565900647 -0.036545374128942321 0.037276101365073672 0.18443561206146392 0.18994114564414336 -0.054414662469006905 -0.015578571409421196 0.013944956934257792 -0.016950418746785233 -0.017290588459504222 -0.073223798981971039 -0.050766080488345501 -0.034082410250303008 -0.033465866880951024 -0.071925408097730167 0.010309272973241492
leaf_weight=1.0858374051749695 0.871554434299467 3.969234760850668 0.59830325096845616 1.6693748608231547 0.89507071673870087 1.6019047796726211 5.3071198016405106 2.4146947152912643 1.6022950783371923 0.68642984703183163 1.3440014868974679 10.59080997109414 2.32979616522789 1.8164333365857599 6.5804251804947835 2.3649450540542603 1.6370223090052602
leaf_count=16 4 58 2 12 14 25 8 11 10 3 6 9 6 6 25 4 10
internal_value=0 0.055646 0.138605 0.00456668 0.0876283 -0.0286057 0.00529124 -0.0395487 0.104728 0.093161 -0.04931 -0.0556862 -0.0205152 0 -0.0603869 -0.0444216 -0.000894461
internal_weight=0 12.1498 4.56754 7.58223 1.76663 35.2155 8.51132 26.7042 3.2042 1.77227 24.9319 21.9509 5.8156 3.48581 19.5362 8.94537 2.98102
internal_count=229 102 60 42 18 127 43 84 35 19 65 49 24 18 38 29 16
is_linear=0
shrinkage=0.08


Tree=21
num_leaves=4
num_cat=0
split_feature=20 11 20
split_gain=46.7563 26.1474 0.302832
threshold=11.770195556300747 -0.39457200007528193 12.323258556358189
decision_type=2 2 2
left_child=-1 2 -2
right_child=1 -3 -4
leaf_value=-0.074206784957658561 0.14203957828950609 -0.073662176732151738 0.11367754525316956
leaf_weight=24.27725694514811 8.7113505527377164 5.246014727279543 9.9931859187781811
leaf_count=148 2 59 20
internal_value=0 0.0831659 0.127443
internal_weight=0 23.9506 18.7045
internal_count=229 81 22
is_linear=0
shrinkage=0.08


Tree=22
num_leaves=8
num_cat=0
split_feature=3 7 6 10 13 6 6
split_gain=39.6298 8.92871 11.2821 6.76941 2.25295 5.46483 0.00836774
threshold=1.2519292040972998 0.14711606892105797 0.1888888869622741 -0.48604977312558734 1.5000000000000002 0.21380101791535969 0.13636878042510059
decision_type=2 2 2 2 2 2 2
left_child=1 2 -1 -4 -3 -6 -2
right_child=6 4 3 -5 5 -7 -8
leaf_value=0.13509561372743475 0.14155290747022764 -0.074156217282007192 0.12869818241174336 -0.073946663066050342 0.12547774788175661 -0.072073603392292129 0.11649030157458787
leaf_weight=3.7041363306343538 4.6706290394067747 21.38715930655599 1.2336787693202493 5.7028060108423233 1.2705985829234117 2.7236600667238235 7.8974253982305527
leaf_count=9 5 97 3 41 4 49 21
internal_value=0 -0.0380607 0.0231019 -0.0366699 -0.0638541 -0.00746786 0.126645
internal_weight=0 36.022 10.6406 6.93648 25.3814 3.99426 12.5681
internal_count=229 203 53 44 150 53 26
is_linear=0
shrinkage=0.08


Tree=23
num_leaves=7
num_cat=0
split_feature=0 7 10 10 17 7
split_gain=31.4175 12.3637 1.44886 6.19031 2.50631 7.11388
threshold=-0.31073336013127556 0.15692910961076323 1.4792011791069017 0.36473725334870882 1.5000000000000002 0.14712497611450995
decision_type=2 2 2 2 2 2
left_child=1 2 3 4 5 -1
right_child=-2 -3 -4 -5 -6 -7
leaf_value=-0.075760821848925686 -0.074007433723756039 -0.072424874093135194 0.12218907322411869 -0.017614200030580209 0.1313286300136019 0.12006625127852323
leaf_weight=1.7213646024465612 22.760480813682079 3.9041723534464827 4.6997621469199649 3.8679161816835395 6.5463230721652508 3.4822875186800957
leaf_count=10 101 73 9 9 15 12
internal_value=0 0.0567395 0.0818726 0.069134 0.0979828 0.0544209
internal_weight=0 24.2218 20.3177 15.6179 11.75 5.20365
internal_count=229 128 55 46 37 22
is_linear=0
shrinkage=0.08


Tree=24
num_leaves=8
num_cat=0
split_feature=10 0 1 0 6 10 6
split_gain=20.9056 16.9989 21.1197 4.30342 3.36571 1.75569 4.57423
threshold=-0.40150701032191422 -0.42678383822399552 1.0000000180025095e-35 -0.19332936671497261 0.16829934746328024 -0.30037661222132739 0.55162142840069939
decision_type=2 2 2 2 2 2 2
left_child=-1 -2 3 4 -3 -6 -7
right_child=1 2 -4 -5 5 6 -8
leaf_value=-0.073887134821818704 -0.073740294904017553 0.15940061780714707 -0.073316968410233788 0.13309834307394758 0.090740253206343061 -0.07739498656253202 0.077304205055048286
leaf_weight=14.962292287498711 6.7016135212033943 1.684048183262348 5.3495244905352584 12.831298623234041 2.259468350559473 2.2268324419856071 2.5857049115002155
leaf_count=86 51 2 45 22 3 9 11
internal_value=0 0.0396053 0.0680371 0.103339 0.058767 0.0332908 0.0048402
internal_weight=0 33.6385 26.9369 21.5874 8.75605 7.07201 4.81254
internal_count=229 143 92 47 25 23 20
is_linear=0
shrinkage=0.08


Tree=25
num_leaves=12
num_cat=0
split_feature=7 19 1 20 11 20 12 18 20 11 7
split_gain=6.38341 6.1312 3.70673 6.79708 5.7648 3.03407 2.84041 2.56063 4.41864 1.11424 0.925174
threshold=0.56381435020297188 1.0000000180025095e-35 0.42795839922092865 12.323258556358189 -0.46671349713767624 4.8763310230062382 1.0000000180025095e-35 1.0000000180025095e-35 19.85657943301435 -0.40500223004353691 0.12513509762832542
decision_type=2 2 2 2 2 2 2 2 2 2 2
left_child=1 2 3 4 5 -1 9 8 -5 -6 -8
right_child=-2 -3 -4 7 6 -7 10 -9 -10 -11 -12
leaf_value=0.15867388424229739 0.1365954665925197 0.15012418024052721 -0.061905947411567665 0.16821749121394727 0.015501717131931729 0.007144349146919836 0.004053832353827563 -1.3156860503624818e-05 -0.012587858877784269 -0.047544514525245649 0.089548929603994548
leaf_weight=1.6515938192606001 2.2446564435958853 1.6042550615966309 6.5176355503499499 2.9168822877109042 1.8806587643921471 1.8072404898703096 2.4387596845626827 1.6139644086360929 1.1556423008441923 16.846778355538845 1.2535999380052087
leaf_count=24 31 23 9 43 12 11 14 9 5 44 13
internal_value=0 -0.000545517 -0.00718597 0.00406624 -0.0132413 0.0818697 -0.0282422 0.0829572 0.11641 -0.0409758 0.0349579
internal_weight=0 39.687 38.0828 31.5651 25.8786 3.45883 22.4198 5.68649 4.07252 18.7274 3.69236
internal_count=238 207 184 175 118 35 83 57 48 56 27
is_linear=0
shrinkage=0.08


Tree=26
num_leaves=4
num_cat=0
split_feature=7 20 0
split_gain=49.7853 10.5919 0.0901981
threshold=0.31232211792391112 11.770195556300747 0.67249812767578809
decision_type=2 2 2
left_child=-1 -2 -3
right_child=1 2 -4
leaf_value=-0.073263434476067146 -0.071732516919894143 0.107879192976455 0.1298322599471646
leaf_weight=22.058220311999321 2.0152317788451937 9.6689998619258404 8.7765617370605469
leaf_count=180 40 17 1
internal_value=0 0.0997673 0.118864
internal_weight=0 20.4608 18.4456
internal_count=238 58 18
is_linear=0
shrinkage=0.08


Tree=27
num_leaves=8
num_cat=0
split_feature=3 7 6 20 5 6 20
split_gain=25.9559 8.01224 9.58655 5.40418 2.75826 4.58495 0.558759
threshold=1.2519292040972998 0.14711606892105797 0.1888888869622741 5.1225638281903274 1.0000000180025095e-35 0.21380101791535969 6.9332336863065942
decision_type=2 2 2 2 2 2 2
left_child=1 2 -1 -4 -3 -6 -2
right_child=6 4 3 -5 5 -7 -8
leaf_value=0.1274787285614892 0.12181661412523237 -0.073316877682338619 0.1047657442299515 -0.073091790029341075 0.12598097007182879 -0.069896052845046533 0.079707229112575703
leaf_weight=3.6952977105975169 7.3613612800836545 17.542683625593785 1.3405304700136182 4.9211412128061056 1.2242222093045705 1.8530013263225553 4.4866084083914757
leaf_count=7 11 137 5 39 3 19 17
internal_value=0 -0.0326037 0.0259595 -0.0338531 -0.0610707 0.0075196 0.106609
internal_weight=0 30.5769 9.95697 6.26167 20.6199 3.07722 11.848
internal_count=238 210 51 44 159 22 28
is_linear=0
shrinkage=0.08


Tree=28
num_leaves=9
num_cat=0
split_feature=0 17 18 20 20 4 20 10
split_gain=24.6096 14.3701 7.95712 1.84065 2.77635 1.5709 1.80155 0.531096
threshold=-0.31073336013127556 1.5000000000000002 1.0000000180025095e-35 4.2895194674320516 11.512389751371602 1.0000000180025095e-35 6.7209712969566509 0.2964452035377721
decision_type=2 2 2 2 2 2 2 2
left_child=1 5 3 -3 -5 -1 -7 -4
right_child=-2 2 7 4 -6 6 -8 -9
leaf_value=-0.074146951593867055 -0.072944020539792695 0.094997210573987023 0.11415898696921463 -0.075035494777570155 0.066709630207701723 -0.071440839885104843 0.061926106697734032 0.16194165217106707
leaf_weight=4.0537017639726427 18.470497163012624 1.2476760931313009 4.5145888868719339 2.0829864442348485 1.4439237285405395 1.0661874152719977 1.4837577771395443 5.0460788607597351
leaf_count=61 104 5 14 14 11 12 11 6
internal_value=0 0.0535618 0.0985204 0.0130343 -0.0157652 -0.0434406 0.00432251 0.140506
internal_weight=0 20.9389 14.3353 4.77459 3.52691 6.60365 2.54995 9.56067
internal_count=238 134 50 30 25 84 23 20
is_linear=0
shrinkage=0.08


Tree=29
num_leaves=6
num_cat=0
split_feature=11 18 20 20 17
split_gain=13.7249 13.9286 7.14956 5.01994 1.82038
threshold=-0.11608186801752009 1.0000000180025095e-35 19.85657943301435 4.2895194674320516 3.5000000000000004
decision_type=2 2 2 2 2
left_child=2 3 -1 -2 -5
right_child=1 -3 -4 4 -6
leaf_value=-0.073388033865262131 -0.075209054482258328 -0.077633599099889122 0.067957659702269316 0.045406307112622848 0.12384382812558892
leaf_weight=21.012989288195971 1.0637854561209703 4.6749389953911296 2.5010960865765801 2.8895610179752094 7.4436728022992611
leaf_count=165 9 12 21 17 14
internal_value=0 0.0376467 -0.0580716 0.0854155 0.102619
internal_weight=0 16.072 23.5141 11.397 10.3332
internal_count=238 52 186 40 31
is_linear=0
shrinkage=0.08


Tree=30
num_leaves=16
num_cat=0
split_feature=6 20 1 11 6 13 6 6 7 20 7 1 7 1 6
split_gain=10.1003 3.21639 11.5508 3.77265 3.99334 3.14969 3.70122 2.80841 2.05411 1.74195 1.20558 1.14218 1.12225 0.723648 0.0160922
threshold=0.64172602181482807 12.323258556358189 0.69748180558908401 -0.40500223004353691 0.24693429349648827 1.0000000180025095e-35 0.76484368064186803 0.59736773943660249 0.12820981842240473 4.2895194674320516 0.17648925033270144 0.027578251614957253 0.15654253492168349 0.35897180045346655 0.49992788680876149
decision_type=2 2 2 2 2 2 2 2 2 2 2 2 2 2 2
left_child=1 3 8 4 -1 6 -2 -6 -3 12 -8 14 -5 -13 -11
right_child=5 2 -4 9 7 -7 10 -9 -10 11 -12 13 -14 -15 -16
leaf_value=-0.035915236925790309 0.14705204167648303 0.024004939820087588 -0.066938514872307273 0.077855595644482897 0.1513151562937266 0.15188474447962955 0.052031559769926794 -0.016649098761589355 0.15972288801071291 -0.055495704361945002 -0.043155960916878983 0.020728560875952554 -0.021802439445187158 -0.045713526817589688 -0.072105813089320958
leaf_weight=2.746263429522517 1.5328684076666821 1.0557884797453869 3.8004451245069504 1.0292618125677138 1.9206287898123267 3.0432910583913326 1.4675071686506274 0.86816150695085514 2.9789576344192028 5.2435947805643099 1.8869776576757429 1.8136746548116196 2.0658269822597504 2.2223535254597664 7.0971165485680103
leaf_count=10 22 8 2 10 28 44 14 4 43 14 5 12 9 7 6
internal_value=0 -0.0123253 0.0320341 -0.0264198 0.0312389 0.087957 0.046205 0.0982459 0.125917 -0.0430528 -0.000186186 -0.0534717 0.0107776 -0.0149891 -0.0656234
internal_weight=0 32.8421 7.83519 25.0069 5.53505 7.93064 4.88735 2.78879 4.03475 19.4718 3.35448 16.3767 3.09509 4.03603 12.3407
internal_count=238 153 53 100 42 85 41 32 51 58 19 39 19 19 20
is_linear=0
shrinkage=0.08


Tree=31
num_leaves=4
num_cat=0
split_feature=7 20 0
split_gain=42.4496 8.67775 0.0587974
threshold=0.31232211792391112 11.770195556300747 0.67249812767578809
decision_type=2 2 2
left_child=-1 -2 -3
right_child=1 2 -4
leaf_value=-0.072310581853555544 -0.07045306557690427 0.097882161440584148 0.11773926443897349
leaf_weight=20.386633571237326 1.8683648072183157 9.6329684220254421 8.7294702529907227
leaf_count=180 40 17 1
internal_value=0 0.091038 0.107834
internal_weight=0 20.2308 18.3624
internal_count=238 58 18
is_linear=0
shrinkage=0.08


Tree=32
num_leaves=10
num_cat=0
split_feature=3 7 20 11 7 5 13 10 11
split_gain=21.3278 7.2707 4.08272 4.18665 5.01578 2.5434 3.22516 0.500094 1.00464
threshold=1.2519292040972998 0.14711606892105797 5.1225638281903274 -0.075875472208127431 0.11592158149270447 1.0000000180025095e-35 1.5000000000000002 -0.37586967356224871 -0.27387741784235736
decision_type=2 2 2 2 2 2 2 2 2
left_child=1 2 -1 4 -4 -3 -7 -2 -9
right_child=7 5 3 -5 -6 6 -8 8 -10
leaf_value=0.11001666564462413 0.11013003610825076 -0.072331462356927251 0.1197713840757615 -0.071815516008889385 -0.0688781260577013 -0.068397887876234131 0.095405432769729959 0.025204837704594436 0.10482417083198446
leaf_weight=2.5852236375212687 7.3764506131410599 16.182955151423815 2.4033900275826459 3.3037939723581076 1.3570386823266742 1.5964852124452582 1.3865849245339632 2.0267337784171104 2.4806749597191793
leaf_count=7 11 137 4 11 29 15 7 13 4
internal_value=0 -0.0313078 0.0249494 -0.00617393 0.0506326 -0.0598309 0.00673967 0.0958194 0.0705707
internal_weight=0 28.8155 9.64945 7.06422 3.76043 19.166 2.98307 11.8839 4.50741
internal_count=238 210 51 44 33 159 22 28 17
is_linear=0
shrinkage=0.08


Tree=33
num_leaves=8
num_cat=0
split_feature=11 18 6 0 7 7 18
split_gain=21.5527 7.79483 4.78557 3.25086 3.28276 3.16585 1.35068
threshold=0.05961738433975896 1.0000000180025095e-35 0.49992788680876149 -0.31073336013127556 0.15651559518053643 0.14712500104717177 1.0000000180025095e-35
decision_type=2 2 2 2 2 2 2
left_child=3 2 -2 4 5 6 -1
right_child=1 -3 -4 -5 -6 -7 -8
leaf_value=-0.07561378844816026 0.079836961522871425 0.13069872123647097 -0.070749134466837754 -0.071855045139096754 -0.071308145765181061 0.093642232294899388 0.019427262395051607
leaf_weight=1.6546019650995734 2.6338364332914335 7.5387281998991966 2.6637424565851688 15.155333140864968 3.7150470186024904 2.4259218163788319 2.0438972972333431
leaf_count=12 13 11 14 90 80 8 10
internal_value=0 0.0786968 0.00341733 -0.0486097 -0.0122191 0.0232634 -0.0224657
internal_weight=0 12.8363 5.29758 24.9948 9.83947 6.12442 3.6985
internal_count=238 38 27 200 110 30 22
is_linear=0
shrinkage=0.08


Tree=34
num_leaves=8
num_cat=0
split_feature=10 18 6 17 10 10 20
split_gain=11.5692 10.6276 6.56221 3.25219 6.04216 0.542872 0.470576
threshold=-0.36829006333190878 1.0000000180025095e-35 0.23154010194720648 2.5000000000000004 -0.35171189393315394 0.13440281290988396 4.4767773054133047
decision_type=2 2 2 2 2 2 2
left_child=-1 2 -2 4 -4 -5 -7
right_child=1 -3 3 5 -6 6 -8
leaf_value=-0.07206521048667637 -0.072843426329226552 -0.075470519970911282 0.12054268033728509 0.11386859006783766 -0.073049268078056881 0.10180267377246401 0.045293815072531267
leaf_weight=15.290348201990126 2.3049622103571954 5.7072231266647568 1.7559137344360358 5.4581526480615121 2.3465124797075969 2.0577505808323622 2.7226526327431202
leaf_count=109 22 27 1 7 53 7 12
internal_value=0 0.0180308 0.0504582 0.0707381 0.00930208 0.0948009 0.0712484
internal_weight=0 22.3532 16.6459 14.341 4.10243 10.2386 4.7804
internal_count=238 129 102 80 54 26 19
is_linear=0
shrinkage=0.08


Tree=35
num_leaves=17
num_cat=0
split_feature=6 20 1 10 7 20 1 10 20 7 4 7 0 0 7 6
split_gain=8.41604 2.84465 9.65871 3.48224 2.71014 2.58392 2.83976 2.70618 1.72595 1.59347 1.02622 0.701008 0.545686 1.3006 0.0172394 0.0169026
threshold=0.64172602181482807 12.323258556358189 0.69748180558908401 -0.46448745860266033 0.14712515687630848 14.550718552104097 -1.0000000180025095e-35 0.36473725334870882 3.1862699724950252 0.12820981842240473 1.0000000180025095e-35 0.12317647497638376 1.0000000180025095e-35 1.2009444096686734 0.56381435020297188 0.45120928985903969
decision_type=2 2 2 2 2 2 2 2 2 2 2 2 2 2 2 2
left_child=1 3 9 4 -1 7 -7 14 -5 -3 12 -12 15 -14 -2 -10
right_child=5 2 -4 8 -6 6 -8 -9 10 -11 11 -13 13 -15 -16 -17
leaf_value=-0.023982209756343336 0.15304891898853579 0.022764430164635484 -0.065499349440624965 0.038301032350782867 0.12356246990283372 -0.058425395390922827 0.10925446748556805 0 -0.049875644700010546 0.14320507892868778 -0.048660134370665499 0.032783256691484082 0.022533640423968986 -0.062711860966126659 0.10333013758751616 -0.066222008546579517
leaf_weight=1.4238535836339061 3.0367532819509497 1.0443312451243389 3.4836773946881294 1.7156240940094019 1.6230696663260458 1.4516869336366656 1.0746836587786672 1.1326196268200872 4.7230496406555229 3.0580425821244717 1.0439399816095822 1.7144634053111074 1.9259623140096653 2.5451698377728462 1.207513704895973 7.1842927634716034
leaf_count=6 44 8 2 13 23 3 15 6 14 43 3 13 13 6 17 9
internal_value=0 -0.0110727 0.0312394 -0.0247075 0.054048 0.080968 0.0120868 0.112186 -0.0365082 0.114151 -0.0435056 0.000218484 -0.0510912 -0.0252641 0.141203 -0.0603084
internal_weight=0 31.4855 7.58605 23.8994 3.04692 7.90326 2.52637 5.37689 20.8525 4.10237 19.1369 2.7584 16.3785 4.47113 4.24427 11.9073
internal_count=238 153 53 100 29 85 18 67 71 51 58 16 42 19 61 23
is_linear=0
shrinkage=0.08


Tree=36
num_leaves=4
num_cat=0
split_feature=7 20 20
split_gain=36.3335 7.1743 0.0789073
threshold=0.31232211792391112 11.770195556300747 12.562782540835292
decision_type=2 2 2
left_child=-1 -2 -3
right_child=1 2 -4
leaf_value=-0.071419339107185814 -0.069182834317966013 0.10882363079969334 0.088960113074577338
leaf_weight=18.767262186855078 1.7227258663624549 8.5439395904541016 9.4534390904009342
leaf_count=180 40 1 17
internal_value=0 0.0838644 0.098887
internal_weight=0 19.7201 17.9974
internal_count=238 58 18
is_linear=0
shrinkage=0.08


Tree=37
num_leaves=9
num_cat=0
split_feature=3 7 6 10 5 6 10 11
split_gain=17.7341 6.6299 6.90664 4.41372 2.3511 3.46118 0.431287 0.839211
threshold=1.2519292040972998 0.14711606892105797 0.1888888869622741 -0.48604977312558734 1.0000000180025095e-35 0.21380101791535969 -0.37586967356224871 -0.27387741784235736
decision_type=2 2 2 2 2 2 2 2
left_child=1 2 -1 -4 -3 -6 -2 -8
right_child=6 4 3 -5 5 -7 7 -9
leaf_value=0.10791721514052598 0.10087010009203771 -0.071440478011493558 0.094906510927127208 -0.070955275417643848 0.10595106279852845 -0.068065032869846206 0.022281676391407448 0.095485831787846531
leaf_weight=3.738917965441944 7.2836079150438309 14.887262236326935 1.2824029959738252 4.2895787004381418 1.2399750016629689 1.6304663103073833 2.025172121822834 2.4477864131331426
leaf_count=7 11 137 3 41 3 19 13 4
internal_value=0 -0.0299943 0.0242954 -0.0315658 -0.058673 0.00626386 0.0874499 0.0638391
internal_weight=0 27.0686 9.3109 5.57198 17.7577 2.87044 11.7566 4.47296
internal_count=238 210 51 44 159 22 28 17
is_linear=0
shrinkage=0.08


Tree=38
num_leaves=8
num_cat=0
split_feature=0 17 18 11 11 20 10
split_gain=18.9782 9.90852 4.7605 1.45733 1.44987 2.51419 0.0624955
threshold=-0.31073336013127556 1.5000000000000002 1.0000000180025095e-35 0.05961738433975896 -0.48728391950238931 6.7209712969566509 0.2964452035377721
decision_type=2 2 2 2 2 2 2
left_child=1 4 3 -3 5 -1 -4
right_child=-2 2 6 -5 -6 -7 -8
leaf_value=-0.068927919530834589 -0.071138106714959945 -0.068895810128754009 0.095553790359402341 0.037067403353467671 -0.073718563436017501 0.091768500958881977 0.12315897950533218
leaf_weight=1.2684906385838979 15.669900115579365 1.0203349944204063 4.4837464205920696 3.5049744062125683 3.4975437354296481 1.1249936688691375 5.5513197183609009
leaf_count=25 104 14 14 16 56 3 6
internal_value=0 0.0456812 0.0811137 0.0118095 -0.0411668 0.00529841 0.111756
internal_weight=0 20.4514 14.5604 4.52531 5.89103 2.39348 10.0351
internal_count=238 134 50 30 84 28 20
is_linear=0
shrinkage=0.08


Tree=39
num_leaves=7
num_cat=0
split_feature=2 11 20 0 20 10
split_gain=10.3917 11.0841 4.90299 1.87145 3.10239 5.96607
threshold=0.34508587299354282 -0.354182904805943 4.2895194674320516 -0.19332936671497261 4.4767773054133047 -0.33963300411860647
decision_type=2 2 2 2 2 2
left_child=1 -1 -3 4 -4 -6
right_child=-2 2 3 -5 5 -7
leaf_value=-0.070748152515825002 -0.071272125745432527 -0.075839511694023157 0.12343279091650988 0.097375856971101626 0.11036658078502094 -0.080160765730106387
leaf_weight=6.3868438005447414 14.113981980830429 1.5800531953573216 1.7560921907424916 7.4571237675845614 1.7369205951690658 2.5053151324391378
leaf_count=65 131 9 1 14 1 17
internal_value=0 0.0169197 0.0545359 0.0703659 0.0355985 -0.000843314
internal_weight=0 21.4223 15.0355 13.4555 5.99833 4.24224
internal_count=238 107 42 33 19 18
is_linear=0
shrinkage=0.08


Tree=40
num_leaves=16
num_cat=0
split_feature=6 20 1 10 6 20 1 10 6 20 2 0 10 18 6
split_gain=7.08456 2.49104 8.24816 3.01437 2.27788 2.07465 2.42397 2.19175 1.88534 1.50561 1.41573 1.28033 1.33495 1.05073 0.0802121
threshold=0.64172602181482807 12.323258556358189 0.69748180558908401 -0.42136282955680632 0.24693429349648827 14.550718552104097 -1.0000000180025095e-35 0.36473725334870882 0.59736773943660249 3.9947016399024453 0.39476591304669295 1.0000000180025095e-35 -0.37284995110861191 1.0000000180025095e-35 0.45120928985903969
decision_type=2 2 2 2 2 2 2 2 2 2 2 2 2 2 2
left_child=1 3 13 4 -1 7 -7 -2 -6 10 -5 14 -13 -3 -11
right_child=5 2 -4 9 8 6 -8 -9 -10 11 -12 12 -14 -15 -16
leaf_value=-0.029880499465164415 0.12917369337358212 0.13135188625703814 -0.064263451827557216 0.083986162220236318 0.12536790972403919 -0.056386249118837668 0.10189575949889762 0 -0.014961732667740389 -0.049056756367578482 -0.027251968882369929 -0.04639333434244558 0.048249420421505151 0.035255717557737237 -0.069718575295483462
leaf_weight=1.9542055651545585 4.2422468550503245 2.9217235781252375 3.2185821980237961 1.0975022204220324 1.8617172762751582 1.3552728965878489 1.0455057471990583 1.1127192191779611 0.81701112538576115 4.7953103333711606 1.9146280176937578 2.2645863965153699 1.5547759011387814 1.1942694485187528 6.5280258320271969
leaf_count=8 61 41 2 11 27 3 15 6 4 15 8 7 13 10 7
internal_value=0 -0.0098254 0.030355 -0.0229713 0.0339124 0.0756263 0.0115838 0.103225 0.0816116 -0.0377605 0.0126821 -0.0480664 -0.00670702 0.105187 -0.0615744
internal_weight=0 30.1223 7.33458 22.7878 4.63293 7.75574 2.40078 5.35497 2.67873 18.1548 3.01213 15.1427 3.81936 4.11599 11.3233
internal_count=238 153 53 100 39 85 18 67 31 61 19 42 20 51 22
is_linear=0
shrinkage=0.08


Tree=41
num_leaves=4
num_cat=0
split_feature=7 20 0
split_gain=31.2863 6.02151 0.0912026
threshold=0.31232211792391112 11.770195556300747 0.67249812767578809
decision_type=2 2 2
left_child=-1 -2 -3
right_child=1 2 -4
leaf_value=-0.070623506656280435 -0.068023951016503853 0.081755522478220849 0.10167526625472388
leaf_weight=17.235081974416971 1.5888944771140838 9.1682365722954273 8.2523174285888672
leaf_count=180 40 17 1
internal_value=0 0.0779822 0.0916847
internal_weight=0 19.0094 17.4206
internal_count=238 58 18
is_linear=0
shrinkage=0.08


Tree=42
num_leaves=9
num_cat=0
split_feature=3 7 6 11 5 6 20 6
split_gain=14.8388 6.03927 5.89538 3.62528 2.1303 2.96945 0.381305 1.38761
threshold=1.2519292040972998 0.14711606892105797 0.1888888869622741 -0.48728391950238931 1.0000000180025095e-35 0.21380101791535969 6.9332336863065942 0.13636878042510059
decision_type=2 2 2 2 2 2 2 2
left_child=1 2 -1 -4 -3 -6 -2 -8
right_child=6 4 3 -5 5 -7 7 -9
leaf_value=0.10035733803392655 0.093319763870847589 -0.070610414003703659 0.080130868812184897 -0.069915466015497071 0.096925436113280625 -0.067107144794580298 0.1017765754147638 0.0099031303458710345
leaf_weight=3.7107576057314891 7.1042404621839506 13.640389980748298 1.3299484085291622 3.8859963901340961 1.2277758941054338 1.5209764242172239 2.23884117603302 2.1661665365099907
leaf_count=7 11 137 5 39 3 19 2 15
internal_value=0 -0.028836 0.0237068 -0.0304999 -0.057683 0.00515417 0.0805009 0.0581138
internal_weight=0 25.3158 8.9267 5.21594 16.3891 2.74875 11.5092 4.40501
internal_count=238 210 51 44 159 22 28 17
is_linear=0
shrinkage=0.08


Tree=43
num_leaves=8
num_cat=0
split_feature=0 17 18 10 20 20 20
split_gain=16.614 8.09295 3.94719 1.24257 2.199 1.10868 2.1936
threshold=-0.31073336013127556 1.5000000000000002 1.0000000180025095e-35 -0.46756778924879278 6.7209712969566509 4.2895194674320516 11.512389751371602
decision_type=2 2 2 2 2 2 2
left_child=1 3 5 4 -1 -3 -7
right_child=-2 2 -4 -5 -6 6 -8
leaf_value=-0.067861528126514567 -0.070339819233096054 0.071381806769685544 0.1012288246562377 -0.07231519277907833 0.084120848871031662 -0.073237899975699822 0.058424028645471797
leaf_weight=1.2290136590600007 14.353123087435959 1.2863597944378824 10.068603055551648 3.1444017104804551 1.1091297045350073 1.7930773161351683 1.3744376562535761
leaf_count=27 104 5 20 54 3 14 11
internal_value=0 0.0422653 0.0735581 -0.0398176 0.0028102 0.00968723 -0.0148443
internal_weight=0 20.005 14.5225 5.48255 2.33814 4.45387 3.16751
internal_count=238 134 50 84 30 30 25
is_linear=0
shrinkage=0.08


Tree=44
num_leaves=7
num_cat=0
split_feature=2 11 20 0 20 10
split_gain=9.21394 9.48873 4.21766 1.54714 2.65697 5.16937
threshold=0.34508587299354282 -0.354182904805943 4.2895194674320516 -0.19332936671497261 4.4767773054133047 -0.33963300411860647
decision_type=2 2 2 2 2 2
left_child=1 -1 -3 4 -4 -6
right_child=-2 2 3 -5 5 -7
leaf_value=-0.069847393406761549 -0.070450102183194682 -0.07426938314441181 0.11372176452972706 0.089748712546553228 0.10203137544371446 -0.078559748494555631
leaf_weight=5.8433380816131857 12.91482496075332 1.4899831078946579 1.7468332052230824 7.2913016751408568 1.6917235851287826 2.3757719229906811
leaf_count=65 131 9 1 14 1 17
internal_value=0 0.0156351 0.0502526 0.0649421 0.0326519 -0.00215121
internal_weight=0 20.439 14.5956 13.1056 5.81433 4.0675
internal_count=238 107 42 33 19 18
is_linear=0
shrinkage=0.08


Tree=45
num_leaves=10
num_cat=0
split_feature=7 19 11 1 20 20 7 7 20
split_gain=3.44264 3.41777 2.59458 2.53216 3.95468 1.86958 3.79717 1.23768 0.944915
threshold=0.56381435020297188 1.0000000180025095e-35 -0.51186612709319002 0.42795839922092865 12.323258556358189 11.512389751371602 0.17856610273729923 0.21983075162113863 19.85657943301435
decision_type=2 2 2 2 2 2 2 2 2
left_child=1 2 -1 4 5 6 -4 8 -6
right_child=-2 -3 3 -5 7 -7 -8 -9 -10
leaf_value=0.11050164307244092 0.10678387954820114 0.11438276022684404 -0.01817760317414362 -0.061958896874285053 0.057830999245204247 -0.065183954564983354 0.089970564724556057 0.13259665512053867 -0.032407764135536608
leaf_weight=1.1682082712650288 2.0760182738304129 1.5928539633750904 15.070126257836831 4.7391330748796454 3.4428780488669863 3.7748224213719359 2.3559006974101058 1.2144156396389005 0.84681721776723851
leaf_count=17 31 23 72 7 37 4 27 17 3
internal_value=0 0.00171316 -0.00383408 -0.00837756 0.00107964 -0.0144796 -0.00311212 0.0613222 0.0389273
internal_weight=0 34.2052 32.6123 31.4441 26.705 21.2008 17.426 5.50411 4.2897
internal_count=238 207 184 167 160 103 99 57 40
is_linear=0
shrinkage=0.08


Tree=46
num_leaves=4
num_cat=0
split_feature=7 20 20
split_gain=27.0525 5.07957 0.104816
threshold=0.31232211792391112 11.770195556300747 12.562782540835292
decision_type=2 2 2
left_child=-1 -2 -3
right_child=1 2 -4
leaf_value=-0.069900264157939762 -0.06689964297484037 0.095885993208113224 0.075615075190787778
leaf_weight=15.79121866635978 1.4570937547832752 7.8844723701477077 8.803136829286812
leaf_count=180 40 1 17
internal_value=0 0.0730658 0.0856894
internal_weight=0 18.1447 16.6876
internal_count=238 58 18
is_linear=0
shrinkage=0.08


Tree=47
num_leaves=9
num_cat=0
split_feature=3 7 6 10 5 6 10 11
split_gain=12.478 5.49977 5.04163 3.42363 1.94694 2.56454 0.324467 0.634688
threshold=1.2519292040972998 0.14711606892105797 0.1888888869622741 -0.48604977312558734 1.0000000180025095e-35 0.21380101791535969 -0.37586967356224871 -0.27387741784235736
decision_type=2 2 2 2 2 2 2 2
left_child=1 2 -1 -4 -3 -6 -2 -8
right_child=6 4 3 -5 5 -7 7 -9
leaf_value=0.093918472328468824 0.086814239284017158 -0.069873832410275366 0.08158333864217962 -0.06906629418489342 0.089817141126250971 -0.066067302881941542 0.0174507754447372 0.08230649690091088
leaf_weight=3.6513974815607089 6.8610155209898949 12.478865764103828 1.2434805892407892 3.6280444394797087 1.2027301080524915 1.4077897844836114 2.0067438259720802 2.3124106451868993
leaf_count=7 11 137 3 41 3 19 13 4
internal_value=0 -0.027728 0.0232275 -0.0293613 -0.056755 0.00458722 0.0746479 0.0536336
internal_weight=0 23.6123 8.52292 4.87153 15.0894 2.61052 11.1802 4.31915
internal_count=238 210 51 44 159 22 28 17
is_linear=0
shrinkage=0.08


Tree=48
num_leaves=8
num_cat=0
split_feature=0 17 18 6 6 20 20
split_gain=14.5486 6.64007 3.26374 1.35107 1.17406 0.909881 1.92779
threshold=-0.31073336013127556 1.5000000000000002 1.0000000180025095e-35 0.21925296205462833 0.29884747784547133 4.2895194674320516 11.512389751371602
decision_type=2 2 2 2 2 2 2
left_child=1 3 5 -1 -4 -3 -7
right_child=-2 2 4 -5 -6 6 -8
leaf_value=0.0094221710357907957 -0.069604750551470196 0.063697898788937196 0.055819634823037818 -0.072489858577844346 0.11557931211801062 -0.072494212295860172 0.053196237795147983
leaf_weight=2.0768817402422455 13.107564520090817 1.2813730575144262 4.0205791033804417 3.0041855126619339 5.9676791075617075 1.6737369056791069 1.3543296121060846
leaf_count=11 104 5 11 73 9 14 11
internal_value=0 0.0393195 0.0672782 -0.0384633 0.0923205 0.00792528 -0.0150276
internal_weight=0 19.3788 14.2977 5.08107 9.98826 4.30944 3.02807
internal_count=238 134 50 84 20 30 25
is_linear=0
shrinkage=0.08


Tree=49
num_leaves=7
num_cat=0
split_feature=2 11 20 1 20 6
split_gain=8.11825 8.16582 3.59601 1.31633 2.24114 4.51191
threshold=0.34508587299354282 -0.354182904805943 4.2895194674320516 -1.0000000180025095e-35 4.4767773054133047 0.84719867182428177
decision_type=2 2 2 2 2 2
left_child=1 -1 -3 4 -4 -6
right_child=-2 2 3 -5 5 -7
leaf_value=-0.069040986758986483 -0.069699498170894908 -0.072546685510043465 0.10454317553741925 0.083332171934895852 -0.077216841631934194 0.095317049311554145
leaf_weight=5.3568253116682198 11.76771606877446 1.3889464214444185 1.7088741064071644 7.0627372786402693 2.2449503317475319 1.6272206306457522
leaf_count=65 131 9 1 14 17 1
internal_value=0 0.0142788 0.0465014 0.0601284 0.0295748 -0.00340146
internal_weight=0 19.3896 14.0327 12.6438 5.58105 3.87217
internal_count=238 107 42 33 19 18
is_linear=0
shrinkage=0.08


Tree=50
num_leaves=17
num_cat=0
split_feature=7 12 13 20 18 7 20 0 11 20 6 17 6 7 1 6
split_gain=5.06463 4.49414 3.69705 3.12494 2.20726 3.43721 3.50413 1.60863 1.47586 1.7362 0.992276 0.894538 0.861209 0.613547 0.473716 0.0210625
threshold=0.17856610273729923 1.0000000180025095e-35 1.0000000180025095e-35 6.5108145278789058 1.0000000180025095e-35 0.17179232329324959 9.6224191258688254 -0.19332936671497261 -0.354182904805943 8.0354790536387899 0.76484368064186803 4.5000000000000009 0.43921143117577144 0.14705834357567085 -1.0000000180025095e-35 0.24693429349648827
decision_type=2 2 2 2 2 2 2 2 2 2 2 2 2 2 2 2
left_child=1 4 -2 -4 5 6 11 12 9 -3 -10 13 -5 -1 -8 -6
right_child=2 8 3 7 15 -7 14 -9 10 -11 -12 -13 -14 -15 -16 -17
leaf_value=0.01025579336264895 0.13449139104786695 0.072708710324875844 0.099760978862760294 -0.0011073792919698835 -0.05522142877506913 -0.069975784281863074 0.027021302436503161 -0.045577276023827031 0.13671288604370047 -0.043346635783121534 0.025118262870129526 0.034075553671976858 0.10547772589404619 -0.048141730108391505 0.11488938796837596 -0.077670545940729793
leaf_weight=1.454614369198685 2.495190814137457 1.4933386482298376 2.2158242426812649 0.94454077258706071 3.2271688915789118 4.6617071256041518 0.70920713990926776 3.33821751922369 1.4233297221362584 1.6955851614475248 0.97365935146808613 1.656234089285135 0.81117599830031395 3.9258452840149403 1.8351684175431726 3.9893549978733063
leaf_count=10 36 15 35 6 9 7 6 7 21 6 9 12 12 14 28 9
internal_value=0 -0.0158501 0.0511068 0.0213796 -0.0325973 -0.0138837 0.0132144 -0.0125764 0.0474962 0.0100493 0.0944572 -0.0154984 0.047479 -0.0316682 0.092932 -0.068631
internal_weight=0 27.0452 9.80495 7.30976 21.4593 14.2428 9.58107 5.09393 5.58591 3.18892 2.39699 7.03669 1.75572 5.38046 2.54438 7.21652
internal_count=242 146 96 60 95 77 70 25 51 21 30 36 18 24 34 18
is_linear=0
shrinkage=0.08


Tree=51
num_leaves=2
num_cat=0
split_feature=7
split_gain=17.7545
threshold=0.55885304968341509
decision_type=2
left_child=-1
right_child=-2
leaf_value=-0.070593471917777623 0.068870535316030893
leaf_weight=18.075229250825945 8.5513126812875253
leaf_count=206 36
internal_value=0
internal_weight=0
internal_count=242
is_linear=0
shrinkage=0.08


Tree=52
num_leaves=7
num_cat=0
split_feature=6 2 0 7 20 6
split_gain=17.5502 3.94942 3.34759 2.7398 0.374549 0.0046172
threshold=0.23546149513938211 0.39476591304669295 2.1928745619170473 0.21524207420598448 8.3018584020408408 0.19787480132748383
decision_type=2 2 2 2 2 2
left_child=1 3 -2 -1 5 -3
right_child=2 4 -4 -5 -6 -7
leaf_value=-0.069134850667188441 -0.071946956962440162 0.075798794642238626 0.064564651434003612 0.074153158113837478 0.053405932577029518 0.09755794289771301
leaf_weight=2.2929247599095137 14.049178766086696 4.7677876651287061 1.1825608387589444 1.2794561386108396 4.171349322423338 4.43415617197752
leaf_count=20 179 11 3 6 18 5
internal_value=0 0.0572321 -0.0609102 -0.0163965 0.0771862 0.0871868
internal_weight=0 16.9457 15.2317 3.57238 13.3733 9.20194
internal_count=242 60 182 26 34 16
is_linear=0
shrinkage=0.08


Tree=53
num_leaves=12
num_cat=0
split_feature=7 6 11 6 1 20 7 11 17 7 20
split_gain=12.2616 9.70317 4.47327 2.70722 3.71358 2.70253 4.32011 1.79247 1.28672 1.29601 1.05796
threshold=0.15692909714443229 0.24211475102588384 -0.40500223004353691 0.16829934746328024 -1.0000000180025095e-35 5.8895183598192729 0.11592158149270447 -0.45158446332122015 2.5000000000000004 0.15446385526968762 9.5085395946002897
decision_type=2 2 2 2 2 2 2 2 2 2 2
left_child=1 3 7 -1 -5 6 -4 -3 9 -7 -6
right_child=-2 2 5 4 10 8 -8 -9 -10 -11 -12
leaf_value=-0.082954424623001996 -0.069293337874752933 0.093615652129083321 0.089022012667549014 0.090670816015273367 -0.071034756091106974 -0.069260673203223433 -0.076729018395076065 0.22995951793771657 0.10381831821946376 0.072801018371578874 0.0070717903835469751
leaf_weight=3.0537682026624697 8.7725568506866676 1.3970320802181959 1.9191472828388199 2.2192316427826881 2.3570616450160742 0.57965063117444504 2.00368881970644 1.5727991834282866 5.920055290684104 1.075473506003618 1.8870929125696418
leaf_count=21 121 16 4 6 9 19 18 4 12 3 9
internal_value=0 0.0409189 0.0821396 -0.021428 0.0074411 0.0585249 0.00345343 0.169759 0.0863097 0.0201308 -0.0356965
internal_weight=0 23.985 14.4678 9.51715 6.46339 11.498 3.92284 2.96983 7.57518 1.65512 4.24415
internal_count=242 121 76 45 24 56 22 20 34 22 18
is_linear=0
shrinkage=0.08


Tree=54
num_leaves=7
num_cat=0
split_feature=2 10 7 20 20 13
split_gain=11.6952 10.893 3.15699 5.02066 0.61409 0.127039
threshold=0.34508587299354282 -0.40150701032191422 0.15654253492168349 5.8895183598192729 6.0758669568336563 1.0000000180025095e-35
decision_type=2 2 2 2 2 2
left_child=1 -1 3 -3 -4 -6
right_child=-2 2 4 -5 5 -7
leaf_value=-0.068213749542169105 -0.069282017744286481 0.077347323866984688 0.12109564350926 -0.073171025243068413 0.060721093504253636 0.091395792881664675
leaf_weight=4.7289470480754998 9.1364252008497697 3.6734226159751477 3.9610392190515977 2.2248126547783613 3.7138163968920708 3.4683405123651028
leaf_count=58 135 10 6 14 13 6
internal_value=0 0.0382844 0.0681845 0.0197616 0.0932552 0.0766168
internal_weight=0 21.7704 17.0414 5.89824 11.1432 7.18216
internal_count=242 107 49 24 25 19
is_linear=0
shrinkage=0.08


Tree=55
num_leaves=17
num_cat=0
split_feature=7 12 13 20 20 6 11 7 7 17 7 20 20 0 20 6
split_gain=4.36496 4.01863 3.09019 2.69382 1.89619 2.12648 1.28031 1.23804 1.15385 1.60207 1.35053 0.952391 0.857771 0.690913 0.431471 0.17427
threshold=0.17856610273729923 1.0000000180025095e-35 1.0000000180025095e-35 9.8538714260799605 10.728403126099959 0.4676978474784062 -0.23301561899792628 0.15446385526968762 0.11592158149270447 1.5000000000000002 0.14712497611450995 8.0354790536387899 5.324932169556531 2.1928745619170473 9.1662461199611815 0.31238398889098506
decision_type=2 2 2 2 2 2 2 2 2 2 2 2 2 2 2 2
left_child=1 4 -2 13 7 -6 11 8 -1 -10 -11 12 -3 -4 -13 -9
right_child=2 6 3 -5 5 -7 -8 15 9 10 -12 14 -14 -15 -16 -17
leaf_value=-0.05131717786955161 0.12510334966083836 0.13015529971666562 0.095497404761204024 -0.021477031560687591 -0.020848240215387448 0.1023685684704939 0.11837519150712042 -0.081726723430153608 -0.031154040688337374 -0.0049999541393704727 0.12817873137859495 -0.062779488527862123 0.0074376455084154275 0 0.011664525312387708 -0.05051172819045182
leaf_weight=4.2873646225780337 2.4838462807238084 0.7731441408395765 2.4509001970291142 3.9862331040203571 2.7120096497237678 1.2584058605134485 1.1940971128642548 3.698451727628707 2.799564965069294 0.84540582820773102 0.93899580463767052 0.58527958393096957 0.79957116395235062 0.52600992470979679 2.1321758888661861 3.861226100474596
leaf_count=15 36 11 40 17 14 20 19 6 13 4 12 1 5 3 15 11
internal_value=0 -0.0142785 0.0490906 0.0207069 -0.0307372 0.0179973 0.0459496 -0.0427751 -0.0216409 0.00550625 0.0644849 0.023738 0.072382 0.0779365 -0.00376826 -0.0667455
internal_weight=0 25.8857 9.44699 6.96314 20.4014 3.97042 5.48427 16.431 8.87133 4.58397 1.7844 4.29017 1.57272 2.97691 2.71746 7.55968
internal_count=242 146 96 60 95 34 51 61 44 29 16 32 16 43 16 17
is_linear=0
shrinkage=0.08


Tree=56
num_leaves=2
num_cat=0
split_feature=7
split_gain=15.6069
threshold=0.55885304968341509
decision_type=2
left_child=-1
right_child=-2
leaf_value=-0.069916196049931253 0.064834245424877882
leaf_weight=16.585566366091374 8.1476560896262509
leaf_count=206 36
internal_value=0
internal_weight=0
internal_count=242
is_linear=0
shrinkage=0.08


Tree=57
num_leaves=8
num_cat=0
split_feature=6 2 0 7 20 17 6
split_gain=15.2662 3.3525 2.95897 2.4321 0.331391 0.299312 0.0184438
threshold=0.23546149513938211 0.39476591304669295 2.1928745619170473 0.21524207420598448 8.3018584020408408 1.5000000000000002 0.19787480132748383
decision_type=2 2 2 2 2 2 2
left_child=1 3 -2 -1 6 -6 -3
right_child=2 4 -4 -5 5 -7 -8
leaf_value=-0.068459875108952947 -0.071226126707036139 0.070108913844335458 0.059761353518366749 0.069134787032095593 0.068528918320198307 0.01990723231943425 0.092264284801907723
leaf_weight=2.1372976321727104 12.874299449846147 4.5924481227993947 1.1358856707811344 1.2511822674423454 2.3568083923310033 1.7344221249222753 4.2657784596085548
leaf_count=20 179 11 3 6 10 8 5
internal_value=0 0.0534749 -0.060147 -0.0162238 0.0720129 0.0493715 0.0816851
internal_weight=0 16.3379 14.0102 3.38848 12.9495 4.09123 8.85823
internal_count=242 60 182 26 34 18 16
is_linear=0
shrinkage=0.08


Tree=58
num_leaves=11
num_cat=0
split_feature=7 6 20 20 20 6 20 20 7 2
split_gain=10.6624 7.9997 3.44194 3.81945 3.27287 2.85441 2.48033 0.866847 0.450529 0.252647
threshold=0.15692909714443229 0.24211475102588384 2.6021417412392736 5.8895183598192729 1.0778004060661239 0.1888888869622741 2.7961424024381007 6.7209712969566509 0.14712515687630848 0.32771534644093753
decision_type=2 2 2 2 2 2 2 2 2 2
left_child=1 4 -3 6 -1 -6 -4 -5 9 -9
right_child=-2 2 3 7 5 -7 -8 8 -10 -11
leaf_value=0.10999480508123963 -0.068595455559825866 0.15565678738613989 0.082798449785646183 0.12930891884011253 -0.079116027156699339 0.015934376873455086 -0.074620698009753308 0.1023734244786092 0.021934556043251851 0.057349115640551486
leaf_weight=1.027512788772589 8.0049393624067289 2.774314008653163 0.87600660324096624 2.0478067398071271 4.5851115304976684 3.4567068014293909 1.9593821093440054 2.0311750993132591 1.5007882248610256 3.030376210808754
leaf_count=1 121 12 1 2 29 15 21 3 12 25
internal_value=0 0.038092 0.0754983 0.0551279 -0.0202113 -0.0379191 -0.024007 0.0816377 0.0652915 0.0770243
internal_weight=0 23.2892 14.2198 11.4455 9.06933 8.04182 2.83539 8.61015 6.56234 5.06155
internal_count=242 121 76 64 45 44 22 42 40 28
is_linear=0
shrinkage=0.08


Tree=59
num_leaves=8
num_cat=0
split_feature=7 7 20 6 11 20 20
split_gain=6.17611 11.7508 5.0167 2.21455 4.07356 1.32709 3.78513
threshold=0.15651559518053643 0.17856610273729923 3.7285211955035948 0.4676978474784062 0.44180245204252983 5.324932169556531 5.1834678529369453
decision_type=2 2 2 2 2 2 2
left_child=5 2 -2 -4 -5 6 -1
right_child=1 -3 3 4 -6 -7 -8
leaf_value=-0.068637556300112909 -0.069100847082093117 -0.07089625166010062 0.11102291037023315 -0.073753496179922357 0.088803763088668483 -0.068670842409519997 0.088472037421428923
leaf_weight=2.531968339346351 1.4244099911302353 5.1080752555280915 8.1923834141343814 1.3526486586779345 3.1762928292155266 6.0118208881467581 1.5263160467147825
leaf_count=35 6 96 12 22 3 67 1
internal_value=0 0.0322516 0.069899 0.0859856 0.0391044 -0.0448642 -0.00821757
internal_weight=0 19.2538 14.1457 12.7213 4.52894 10.0701 4.05828
internal_count=242 139 43 37 25 103 36
is_linear=0
shrinkage=0.08


Tree=60
num_leaves=17
num_cat=0
split_feature=7 12 13 6 6 18 7 20 10 20 7 10 6 11 1 20
split_gain=3.67643 3.51545 2.58546 2.36398 3.0359 2.00609 2.91856 2.68272 1.59645 1.04919 0.971669 0.897869 0.851253 0.510219 0.35476 0.0172373
threshold=0.17856610273729923 1.0000000180025095e-35 1.0000000180025095e-35 0.57414089549671532 0.55162142840069939 1.0000000180025095e-35 0.17179232329324959 9.6224191258688254 -0.37284995110861191 8.0354790536387899 0.21983075162113863 0.55755256608469406 0.76484368064186803 -0.33398835717127356 -1.0000000180025095e-35 3.2242864618572571
decision_type=2 2 2 2 2 2 2 2 2 2 2 2 2 2 2 2
left_child=1 5 -2 4 10 6 7 11 9 -3 -4 13 -10 -1 -9 -7
right_child=2 8 3 -5 -6 15 -8 14 12 -11 -12 -13 -14 -15 -16 -17
leaf_value=-0.0065654443001673347 0.11625193585196525 0.052304579424595529 0 0.09718844251401855 -0.066279702308527935 -0.077377960887037689 -0.066972352390484505 0.026712876587393315 0.12750770361780142 -0.043507090896911238 0.10588699739262478 0.037249525424650258 0.026214769900420435 -0.06094969822920776 0.10685095026710997 -0.054415885290006599
leaf_weight=3.022963354364038 2.4552145302295667 1.3516153022646906 1.0200111381709578 1.7897675260901449 2.6659040749073029 2.6844731867313376 3.9714669287204734 0.67972239106893573 1.5160591267049306 1.4733712598681448 1.2056988291442392 1.7077520973980425 1.0242085568606851 1.9024701714515733 1.7084495089948175 3.7243323922157288
leaf_count=18 36 13 9 30 2 6 7 6 23 5 19 13 10 5 28 12
internal_value=0 -0.0126421 0.0465652 0.0196898 -0.00855274 -0.0286154 -0.0100933 0.0147368 0.0441121 0.00105512 0.0587707 -0.011028 0.0895061 -0.028777 0.0866981 -0.0651779
internal_weight=0 24.7669 9.1366 6.68138 4.89161 19.4016 12.9928 9.02136 5.36525 2.82499 2.22571 6.63319 2.54027 4.92543 2.38817 6.40881
internal_count=242 146 96 60 30 95 77 70 51 18 28 36 33 23 34 18
is_linear=0
shrinkage=0.08


Tree=61
num_leaves=2
num_cat=0
split_feature=7
split_gain=13.7639
threshold=0.55885304968341509
decision_type=2
left_child=-1
right_child=-2
leaf_value=-0.069316667249955777 0.061168798683250654
leaf_weight=15.190151964314284 7.7598663233220568
leaf_count=206 36
internal_value=0
internal_weight=0
internal_count=242
is_linear=0
shrinkage=0.08


Tree=62
num_leaves=7
num_cat=0
split_feature=3 7 5 13 3 20
split_gain=9.31353 3.93699 1.72473 1.36761 0.328097 0.049429
threshold=1.2519292040972998 0.11592158149270447 1.0000000180025095e-35 1.5000000000000002 1.3907847820120243 6.0758669568336563
decision_type=2 2 2 2 2 2
left_child=1 -1 -3 -4 -2 -6
right_child=4 2 3 -5 5 -7
leaf_value=0.023346709311351601 0.088039631459132281 -0.069336887666426247 -0.066513786368209496 0.061615895637081419 0.062462859889453728 0.04050406482954131
leaf_weight=5.5030856113880935 2.9094964265823346 10.990889732725917 0.83997828606516045 1.2546708639711142 3.2082463018596172 3.8321243189275265
leaf_count=16 3 169 21 9 8 16
internal_value=0 -0.0327654 -0.0566667 0.00801653 0.0629323 0.0514446
internal_weight=0 18.5886 13.0855 2.09465 9.94987 7.04037
internal_count=242 215 199 30 27 24
is_linear=0
shrinkage=0.08


Tree=63
num_leaves=11
num_cat=0
split_feature=7 6 20 6 20 20 20 17 20 2
split_gain=9.24638 6.73304 2.75894 2.60622 2.54384 3.16521 2.17082 0.671781 0.366372 0.540852
threshold=0.15692909714443229 0.24211475102588384 1.0778004060661239 0.1888888869622741 2.6021417412392736 5.8895183598192729 2.7961424024381007 4.5000000000000009 10.058583731641063 0.32771534644093753
decision_type=2 2 2 2 2 2 2 2 2 2
left_child=1 2 -1 -4 -3 6 -6 8 -7 -10
right_child=-2 4 3 -5 5 7 -8 -9 9 -11
leaf_value=0.10099493965581231 -0.067950019839666739 0.13730355908823075 -0.077552601522199005 0.015140668379818185 0.078631447012389166 0.013019980486702179 -0.073378552624686955 0.10884589861050974 0.086265170617766063 0.019189526576223123
leaf_weight=1.0054110288620046 7.270013744942843 2.8739880565553895 4.2901290524750948 3.3774114605039358 0.82366216182708685 1.2170921545475701 1.8070031646639106 2.839171290397644 3.0740264654159546 1.2909011952579019
leaf_count=1 121 12 29 15 1 13 21 3 7 19
internal_value=0 0.0354103 -0.0195007 -0.036371 0.0698423 0.0513996 -0.0237131 0.0753374 0.0567689 0.067776
internal_weight=0 22.5988 8.67295 7.66754 13.9258 11.0519 2.63067 8.42119 5.58202 4.36493
internal_count=242 121 45 44 76 64 22 42 39 26
is_linear=0
shrinkage=0.08


Tree=64
num_leaves=10
num_cat=0
split_feature=10 7 20 7 7 20 20 7 20
split_gain=6.23371 7.40255 2.1838 1.953 2.461 1.70634 2.62849 0.984051 1.0454
threshold=-0.40150701032191422 0.15651559518053643 3.7285211955035948 0.17648925033270144 0.17856610273729923 5.324932169556531 5.1834678529369453 0.15654253492168349 6.0758669568336563
decision_type=2 2 2 2 2 2 2 2 2
left_child=-1 5 -3 7 -5 6 -2 -4 -9
right_child=1 2 3 4 -6 -7 -8 8 -10
leaf_value=-0.067776053816941031 -0.066973514454355454 -0.068488154119695333 0.032281305410085101 0.07610067229759615 -0.072127989646973673 -0.067884359893226998 0.084443989832941949 0.13057824234142631 0.068447550994821305
leaf_weight=5.8491343166679171 1.3773624943569329 0.74250920861959357 2.2983884122222653 1.4721952974796289 1.2976176999509332 4.7202797681093216 1.4461823701858521 3.452226370573042 4.8710570223629475
leaf_count=96 15 6 5 2 40 53 1 3 21
internal_value=0 0.02491 0.0591032 0.0667037 0.00519153 -0.0385944 0.00930841 0.08227 0.0953209
internal_weight=0 21.6778 14.134 13.3915 2.76981 7.54382 2.82354 10.6217 8.32328
internal_count=242 146 77 71 42 69 16 29 24
is_linear=0
shrinkage=0.08


Tree=65
num_leaves=17
num_cat=0
split_feature=7 12 18 7 20 10 11 10 20 20 7 10 1 11 10 20
split_gain=3.14811 3.08502 1.88245 2.63788 2.34486 1.80492 3.13831 1.43032 2.17097 0.754515 0.79834 0.72689 0.680766 0.486143 0.310001 0.0127752
threshold=0.17856610273729923 1.0000000180025095e-35 1.0000000180025095e-35 0.17179232329324959 9.6224191258688254 -0.41660562259009842 -0.45158446332122015 -0.37284995110861191 5.324932169556531 14.550718552104097 0.15446385526968762 0.55755256608469406 0.18797346243035259 -0.33398835717127356 0.13440281290988396 3.2242864618572571
decision_type=2 2 2 2 2 2 2 2 2 2 2 2 2 2 2 2
left_child=1 2 3 4 11 6 -2 8 -3 -9 -11 13 -7 -1 -6 -4
right_child=5 7 15 -5 14 12 -8 9 -10 10 -12 -13 -14 -15 -16 -17
leaf_value=-0.004689638471446685 0.09315298574843088 0.11307893801376379 -0.075452387251392306 -0.065417771928235433 0.099712007285982146 0.10296737635687275 -0.034459082235720813 0.14319555965102954 -0.041373144648380426 0.091090426766013699 -0.019017777537311698 0.033070790469883947 0 -0.059186060530443126 0.017469006745079733 -0.052556736584600534
leaf_weight=2.9800616540014748 1.9260309860110281 0.76207787171006236 2.5153733640909186 3.642256584018468 1.7827319540083411 3.0319059938192354 3.1887901313602924 0.93541165068745558 2.0024956241250038 0.93391344696283318 0.62360416352748871 1.7547657974064348 0.55070646852254856 1.7452069669961976 0.52772841975092877 3.4993445612490177
leaf_count=18 33 11 6 7 30 49 10 14 7 16 3 13 4 5 4 12
internal_value=0 -0.0111451 -0.0266838 -0.00844987 0.0149383 0.0449504 0.0132565 0.0423611 0.00103415 0.0856969 0.0452963 -0.00930716 0.0882926 -0.0260637 0.0833895 -0.0633344
internal_weight=0 23.705 18.4475 12.4328 8.79049 8.69743 5.11482 5.2575 2.76457 2.49293 1.55752 6.48003 3.58261 4.72527 2.31046 6.01472
internal_count=242 146 95 77 70 96 43 51 18 33 19 36 53 23 34 18
is_linear=0
shrinkage=0.08


Tree=66
num_leaves=2
num_cat=0
split_feature=7
split_gain=12.0856
threshold=0.55885304968341509
decision_type=2
left_child=-1
right_child=-2
leaf_value=-0.068737798114980014 0.05773089964121083
leaf_weight=13.918723929673435 7.3220323510467997
leaf_count=206 36
internal_value=0
internal_weight=0
internal_count=242
is_linear=0
shrinkage=0.08


Tree=67
num_leaves=8
num_cat=0
split_feature=6 2 0 20 20 17 6
split_gain=12.0742 2.48471 2.2953 1.53848 0.274925 0.281446 0.0644591
threshold=0.23546149513938211 0.39476591304669295 2.1928745619170473 9.8538714260799605 8.3018584020408408 1.5000000000000002 0.19787480132748383
decision_type=2 2 2 2 2 2 2
left_child=1 3 -2 -1 6 -6 -3
right_child=2 4 -4 -5 5 -7 -8
leaf_value=-0.06690157041509745 -0.070383064340604942 0.060631881885156717 0.050795312567640569 0.045408796263305781 0.062433722371879254 0.014617895048027026 0.085402731779027449
leaf_weight=1.6726342234760552 10.927846118807791 4.1839524619281274 1.0260925441980351 1.3470549648627637 2.1754664098843928 1.684502502903342 3.9711228013038635
leaf_count=11 179 11 3 15 10 8 5
internal_value=0 0.0480365 -0.05948 -0.0155743 0.0643534 0.0430435 0.0736285
internal_weight=0 15.0347 11.9539 3.01969 12.015 3.85997 8.15508
internal_count=242 60 182 26 34 18 16
is_linear=0
shrinkage=0.08


Tree=68
num_leaves=13
num_cat=0
split_feature=7 6 18 6 20 10 20 20 20 2 10 20
split_gain=8.07829 5.77381 2.96441 3.1686 2.33933 2.41602 1.58122 1.40417 1.55254 1.1708 0.347473 0.08865
threshold=0.15692909714443229 0.24211475102588384 1.0000000180025095e-35 0.75542923898407921 1.0778004060661239 -0.46448745860266033 11.512389751371602 9.6224191258688254 9.8145204504745678 0.36204742985771249 -0.41204573481339546 6.6273536967407649
decision_type=2 2 2 2 2 2 2 2 2 2 2 2
left_child=1 4 3 6 -1 -6 -3 -7 -9 -4 -5 -11
right_child=-2 2 9 10 5 7 -8 8 -10 11 -12 -13
leaf_value=0.093752772784590391 -0.067345537130209493 -0.080285809014493822 0.14046554090407187 0.12132910958044138 0.083934641437008989 -0.074886742720959479 0.035021455886669016 0.079988575302728668 -0.067005485741415877 0.048878493063190573 0.05097992356340119 0.0822934508808294
leaf_weight=0.97042459249496982 6.6038395082578054 1.8660702891647791 2.7560500949621201 1.1046121492981913 0.88858878612518299 4.7181939827278256 1.1679842453449962 0.89701116830110528 0.83329781237989664 1.9011193849146364 1.45479348488152 3.3537040911614895
leaf_count=1 121 22 4 4 1 22 11 2 19 12 14 9
internal_value=0 0.0332024 0.0652722 0.0194251 -0.0189126 -0.0348893 -0.0347522 -0.0523983 0.00705736 0.0964689 0.0846179 0.0715331
internal_weight=0 21.9119 13.6043 5.59346 8.30752 7.33709 3.03405 6.4485 1.73031 8.01087 2.55941 5.25482
internal_count=242 121 76 51 45 44 33 43 21 25 18 21
is_linear=0
shrinkage=0.08


Tree=69
num_leaves=9
num_cat=0
split_feature=10 7 6 6 20 20 7 6
split_gain=5.51104 6.36784 2.61331 2.45347 1.5004 2.3013 0.81665 1.22331
threshold=-0.40150701032191422 0.15651559518053643 0.57414089549671532 0.81343826139816133 5.324932169556531 5.1834678529369453 0.15673854304294957 0.32514648244838529
decision_type=2 2 2 2 2 2 2 2
left_child=-1 4 6 -4 5 -2 -3 -8
right_child=1 2 3 -5 -6 -7 7 -9
leaf_value=-0.067256724994163589 -0.066284490351414233 0.10829256744473276 -0.076178654276860852 0.064200202728419795 -0.067269283077035377 0.080508171656493627 0.0062231364942795867 0.079395033308543167
leaf_weight=5.3804821176454452 1.2736583445221212 3.3546949625015241 1.6191599499434226 1.4622060349211095 4.3250579545274377 1.3505681753158569 2.2662351606413722 4.886203751899302
leaf_count=96 15 6 36 5 53 1 19 11
internal_value=0 0.0232987 0.0552082 -0.00832558 -0.0384736 0.0078599 0.0741705 0.0569702
internal_weight=0 20.5378 13.5885 3.08137 6.94928 2.62423 10.5071 7.15244
internal_count=242 146 77 41 69 16 36 30
is_linear=0
shrinkage=0.08


Tree=70
num_leaves=15
num_cat=0
split_feature=7 7 18 11 20 6 6 17 6 1 7 6 6 7
split_gain=2.70039 1.84803 2.73786 3.23938 2.65524 1.74022 4.25973 1.61478 2.07831 1.31186 0.67032 0.370883 1.38143 0.115014
threshold=0.17856610273729923 0.17179232329324959 1.0000000180025095e-35 1.0966386025805193 9.6224191258688254 0.57414089549671532 0.55162142840069939 1.5000000000000002 0.26794483685734299 -1.0000000180025095e-35 0.21983075162113863 0.24693429349648827 0.49992788680876149 0.15651559518053643
decision_type=2 2 2 2 2 2 2 2 2 2 2 2 2 2
left_child=1 2 3 4 11 6 10 8 -4 -6 -2 -1 -13 -9
right_child=5 -3 7 -5 9 -7 -8 13 -10 -11 -12 12 -14 -15
leaf_value=-0.041399066921956107 0.022875039767209619 -0.063996331382053115 -0.035509153160923498 0.18081998618501621 0.0032453311971290927 0.096785357582936271 -0.065074173748427069 -0.043543235280048817 0.1127562085715261 0.098015084998588936 0.10218669621003706 0.12741066769006745 -0.021445443153483748 -0.074435118575464101
leaf_weight=2.7309542018920236 1.2639736048877224 3.3613719530403605 1.5949250869452956 0.75549852848053056 1.6120581738650832 2.6395501755177975 2.296414703130722 3.1644478403031826 0.89276212826371182 2.5310709215700591 2.1176829673349857 0.40906900167465243 2.9733077138662338 2.5338670089840889
leaf_count=11 14 7 6 12 11 46 2 14 13 45 34 6 16 5
internal_value=0 -0.00973791 0 0.0259044 0.0132832 0.0434034 0.0172614 -0.0350177 0.0172962 0.0625733 0.0744729 -0.0197093 -0.000683458 -0.0585037
internal_weight=0 22.5593 19.198 11.012 10.2565 8.31762 5.67807 8.186 2.48769 4.14313 3.38166 6.11333 3.38238 5.69831
internal_count=242 146 139 101 89 96 50 38 19 56 48 33 22 19
is_linear=0
shrinkage=0.08


Tree=71
num_leaves=2
num_cat=0
split_feature=7
split_gain=10.6867
threshold=0.55885304968341509
decision_type=2
left_child=-1
right_child=-2
leaf_value=-0.068257286119423666 0.054751220039266031
leaf_weight=12.722166521474721 6.9196774503216139
leaf_count=206 36
internal_value=0
internal_weight=0
internal_count=242
is_linear=0
shrinkage=0.08


Tree=72
num_leaves=7
num_cat=0
split_feature=6 2 0 7 20 6
split_gain=10.4123 2.16843 2.1119 1.76792 0.525833 0.00944058
threshold=0.23546149513938211 0.39476591304669295 2.1928745619170473 0.21524207420598448 9.5085395946002897 0.19787480132748383
decision_type=2 2 2 2 2 2
left_child=1 3 -2 -1 5 -3
right_child=2 4 -4 -5 -6 -7
leaf_value=-0.066748628033779081 -0.069781506242065069 0.061123420123714634 0.048165910572741374 0.058591657058578515 0.027926044830379495 0.081360627568814028
leaf_weight=1.7442763848230272 9.9683970585465396 4.8185293264687044 0.99979960918426591 1.1323536355048416 2.8837349852547041 3.7302146926522255
leaf_count=20 179 12 3 6 17 5
internal_value=0 0.04489 -0.0584973 -0.015885 0.060533 0.0708408
internal_weight=0 14.3091 10.9682 2.87663 11.4325 8.54874
internal_count=242 60 182 26 34 17
is_linear=0
shrinkage=0.08


Tree=73
num_leaves=10
num_cat=0
split_feature=7 6 1 20 18 11 6 6 6
split_gain=7.11433 4.95953 3.8157 3.28807 2.44025 3.3382 0.920171 0.471387 0.279723
threshold=0.15692909714443229 0.1888888869622741 0.025111576490250354 1.0778004060661239 1.0000000180025095e-35 0.16396394601293213 0.75542923898407921 0.22524974322078209 0.29884747784547133
decision_type=2 2 2 2 2 2 2 2 2
left_child=1 3 4 -1 5 6 7 -3 -6
right_child=-2 2 -4 -5 8 -7 -8 -9 -10
leaf_value=0.088667742423416643 -0.066811861769376146 0.067619089131932639 -0.06431760118991299 -0.074570455106501204 0.11665380922823024 -0.076023283743508127 0.09574581371636702 -0.00061471717894968437 0.078020231907129645
leaf_weight=0.93372118473053589 6.0195807218551627 0.91216409951448563 1.5462806401774276 3.730977376922965 3.1325776055455208 1.476308951154351 2.2961269114166498 1.6424361169338224 5.2465757727622986
leaf_count=1 121 2 25 29 5 16 8 21 14
internal_value=0 0.0314646 0.0524122 -0.0404532 0.0651331 0.0264413 0.0588999 0.023044 0.0935444
internal_weight=0 20.9172 16.2525 4.6647 14.7062 6.32704 4.85073 2.5546 8.37915
internal_count=242 121 91 30 66 47 31 23 19
is_linear=0
shrinkage=0.08


Tree=74
num_leaves=7
num_cat=0
split_feature=2 7 7 6 6 6
split_gain=7.12545 5.74968 3.10963 2.19762 0.534084 1.81586
threshold=0.34508587299354282 0.17856610273729923 0.15654253492168349 0.55451287163628482 0.55162142840069939 0.49992788680876149
decision_type=2 2 2 2 2 2
left_child=1 2 3 4 5 -1
right_child=-2 -3 -4 -5 -6 -7
leaf_value=-0.064824063889643638 -0.067490588632470788 -0.069028775160445463 0.078958316870865838 -0.069856095145126459 0.074826240841268932 0.0746636978491384
leaf_weight=1.0238108988851373 6.5067575359717003 3.0314148887991896 9.2609175993129593 1.746710513718426 1.4635197967290881 1.2739422190934417
leaf_count=22 135 46 18 17 2 2
internal_value=0 0.0299966 0.0507565 0.00233564 0.0373872 0.0107514
internal_weight=0 17.8003 14.7689 5.50798 3.76127 2.29775
internal_count=242 107 61 43 26 24
is_linear=0
shrinkage=0.08


Tree=75
num_leaves=17
num_cat=0
split_feature=10 20 6 6 10 2 20 7 10 0 6 6 10 7 7 0
split_gain=3.55564 1.97235 2.7354 1.64168 1.34297 1.32949 1.17596 1.2457 0.687722 0.664347 0.655654 1.78328 0.43864 0.100541 0.0630731 0.0170051
threshold=-0.50761208764851429 12.323258556358189 0.64172602181482807 0.45120928985903969 0.36473725334870882 0.35235309929492931 3.7285211955035948 0.11592158149270447 -0.42136282955680632 1.0000000180025095e-35 0.59736773943660249 0.24693429349648827 2.5747254105144513 0.14713496787875308 0.15654253492168349 1.5546426651326473
decision_type=2 2 2 2 2 2 2 2 2 2 2 2 2 2 2 2
left_child=-1 2 6 -3 -4 13 7 -2 10 14 11 -8 -9 -5 -10 -11
right_child=1 3 4 5 -6 -7 8 12 9 15 -12 -13 -14 -15 -16 -17
leaf_value=-0.059375843237811872 -0.027983167218387887 0.097879456691218836 0.094738373091693778 -0.043442992566321809 -0.012394668356512773 0.078941579471273879 -0.035133755063462606 0.12666974114383014 -0.038682525566165651 0 -0.053446255948973669 0.094604833240471503 0.023125096897898136 -0.006090138538066692 -0.061964091903083308 -0.011363545101310204
leaf_weight=6.6265710517764083 1.1530443429946999 2.3248004056513301 2.2025936022400852 0.77839951962232667 1.0140550807118414 1.244872163981199 1.4533317685127327 0.67697075009345986 3.0152508914470584 1.392344828695059 0.98783154413104046 1.1554559245705602 0.62774650007486343 1.862072881311178 4.1791655421257019 1.3600068110972641
leaf_count=14 6 38 40 4 6 26 6 11 13 9 3 21 5 12 8 8
internal_value=0 0.00612858 -0.00637784 0.0452115 0.0600672 0.0118379 -0.0201297 0.0295455 -0.0295142 -0.0403085 0 0.0215227 0.0824956 -0.019191 -0.053093 -0.00511232
internal_weight=0 25.4279 19.2178 6.21014 3.21665 3.88534 16.0011 2.45776 13.5434 9.94677 3.59662 2.60879 1.30472 2.64047 7.19442 2.75235
internal_count=230 216 136 80 46 42 90 22 68 38 30 27 16 16 21 17
is_linear=0
shrinkage=0.08


Tree=76
num_leaves=4
num_cat=0
split_feature=7 7 0
split_gain=19.2273 2.31837 2.63292
threshold=0.31232211792391112 0.34233661103092766 -0.19332936671497261
decision_type=2 2 2
left_child=-1 -2 -3
right_child=1 2 -4
leaf_value=-0.0668814339498566 0.10659387683632203 -0.06899307758636064 0.06384842430874467
leaf_weight=9.2838015360757726 8.5059158187359554 1.0653547709807742 5.9552301140502095
leaf_count=175 2 40 13
internal_value=0 0.0782256 0.042779
internal_weight=0 15.5265 7.02058
internal_count=230 55 53
is_linear=0
shrinkage=0.08


Tree=77
num_leaves=9
num_cat=0
split_feature=20 11 20 10 10 20 10 10
split_gain=7.09381 3.63324 2.58825 2.42749 2.16218 0.316844 0.286494 0.033504
threshold=10.058583731641063 -0.11608186801752009 4.8763310230062382 4.368830912240055 -0.30037661222132739 5.1225638281903274 -0.45216613601813066 -0.37284995110861191
decision_type=2 2 2 2 2 2 2 2
left_child=1 2 4 -3 -1 -4 -7 -8
right_child=-2 3 5 -5 -6 6 7 -9
leaf_value=-0.081864108648212433 -0.069727544467674471 -0.067478814617460761 0.10817324450845923 0.062685369195553189 0.069006844636897352 0.017482216725250879 0.0718848198346487 0.049301433262362124
leaf_weight=1.5830489210784437 7.4954318716190746 3.6473044985905299 1.1733847754076112 1.1464678179472683 0.89927108585834936 1.2948600817471749 4.5094449995085606 2.9487698208540642
leaf_count=37 98 35 2 4 3 15 21 15
internal_value=0 0.02323 0.0461735 -0.0351975 -0.0253451 0.0644965 0.057606 0.0638765
internal_weight=0 17.2026 12.4088 4.79377 2.48232 9.92646 8.75307 7.45821
internal_count=230 132 93 39 40 53 51 36
is_linear=0
shrinkage=0.08


Tree=78
num_leaves=9
num_cat=0
split_feature=0 11 6 11 11 10 7 20
split_gain=11.351 1.00312 3.11856 0.778768 0.753521 0.925476 0.413246 0.601108
threshold=-0.31073336013127556 0.05961738433975896 0.75542923898407921 -0.38451764483707063 -0.48728391950238931 -0.48296944247945489 0.15651559518053643 7.8601810031373942
decision_type=2 2 2 2 2 2 2 2
left_child=1 2 4 -4 5 -1 7 -3
right_child=-2 6 3 -5 -6 -7 -8 -9
leaf_value=-0.061075999732987239 -0.067363994410680958 0.011909717002973561 0.10414416906979738 0.018777561568105859 -0.070423221483280993 0.059231247116581648 0.086999434481857846 0.067341924670142495
leaf_weight=0.67751048877835274 8.8404168449342233 2.2029186226427537 2.1078871991485362 1.2258274741470812 1.697635110933337 0.87147830426692896 3.3289248924702406 3.7254722788929939
leaf_count=19 107 9 5 21 52 2 6 9
internal_value=0 0.0454947 0.0204757 0.0746778 -0.0342554 0.00384423 0.0626436 0.0476849
internal_weight=0 15.8377 6.58034 3.33371 3.24662 1.54899 9.25732 5.92839
internal_count=230 123 99 26 73 21 24 18
is_linear=0
shrinkage=0.08


Tree=79
num_leaves=5
num_cat=0
split_feature=2 10 7 20
split_gain=4.14622 3.71255 4.55099 1.015
threshold=0.34508587299354282 -0.40150701032191422 0.17179232329324959 4.5792428423649474
decision_type=2 2 2 2
left_child=1 -1 3 -3
right_child=-2 2 -4 -5
leaf_value=-0.065482449334140755 -0.067124426475704532 0.0012850235159943067 0.072833169563434302 -0.072247976542669054
leaf_weight=3.3256370266899458 6.8961834064684799 2.6706652641296404 6.5759368427097797 1.9885758720338342
leaf_count=59 127 9 13 22
internal_value=0 0.00778575 0.0300218 -0.0296835
internal_weight=0 14.5608 11.2352 4.65924
internal_count=230 103 44 31
is_linear=0
shrinkage=0.08


Tree=80
num_leaves=12
num_cat=0
split_feature=10 6 20 6 10 6 6 11 11 20 7
split_gain=3.08128 1.79888 1.49939 1.87065 1.15092 1.73224 1.11439 1.51332 0.699347 0.546094 0.544763
threshold=-0.50761208764851429 0.82038098232322654 12.323258556358189 0.45120928985903969 -0.49221043441785212 0.090287882872302064 0.61253911798650584 0.19069400660008867 1.6361894944416897 15.897208607324474 0.15651559518053643
decision_type=2 2 2 2 2 2 2 2 2 2 2
left_child=-1 2 4 -4 -2 -6 8 -8 -7 10 -5
right_child=1 -3 3 9 5 6 7 -9 -10 -11 -12
leaf_value=-0.056457835647433501 0.077600254921689288 0.090776385885909791 0.093345932067155107 -0.016861979305472796 0.15248997641714782 -0.035691395262422473 0.08916711355433396 -0.028134757276391739 0.019950039825471957 -0.030736484037264259 0.079049573265390707
leaf_weight=6.1981766559183624 0.83528864756227506 1.4692810550332058 2.2022474929690352 0.580345328897238 0.32903674617409961 11.99217499047518 1.2621930986642831 1.4090352207422254 1.5137231685221184 1.7923659458756445 0.7605364304035902
leaf_count=14 18 30 38 5 5 54 23 7 12 9 15
internal_value=0 0.00648101 0.000655657 0.0377039 -0.0105887 -0.015514 -0.0196369 0.0264421 -0.0291095 -0.00100029 0.0355484
internal_weight=0 24.1462 22.6769 5.3355 17.3415 16.5062 16.1771 2.67123 13.5059 3.13325 1.34088
internal_count=230 216 186 67 119 101 96 30 66 29 20
is_linear=0
shrinkage=0.08


Tree=81
num_leaves=4
num_cat=0
split_feature=7 7 0
split_gain=16.6612 1.86512 2.2592
threshold=0.31232211792391112 0.34233661103092766 -0.19332936671497261
decision_type=2 2 2
left_child=-1 -2 -3
right_child=1 2 -4
leaf_value=-0.066479299710436812 0.099647622624076532 -0.067527321204322671 0.060604804683905472
leaf_weight=8.4729891773313302 8.186350077390669 0.97456998936831851 5.5419843113049865
leaf_count=175 2 40 13
internal_value=0 0.0739141 0.0404649
internal_weight=0 14.7029 6.51655
internal_count=230 55 53
is_linear=0
shrinkage=0.08


Tree=82
num_leaves=9
num_cat=0
split_feature=20 11 20 10 10 20 6 10
split_gain=6.23703 3.12097 2.2588 2.19168 1.93744 0.236279 0.755942 0.842575
threshold=10.058583731641063 -0.11608186801752009 4.8763310230062382 4.368830912240055 -0.30037661222132739 5.1225638281903274 0.21380101791535969 -0.37586967356224871
decision_type=2 2 2 2 2 2 2 2
left_child=1 2 4 -3 -1 -4 -7 -8
right_child=-2 3 5 -5 -6 6 7 -9
leaf_value=-0.081372693901581986 -0.068983340235213228 -0.066975223155926841 0.10006808534724079 0.059021951778124526 0.06597760450618799 0.071418260356435379 -0.057566730814969054 0.043078247937732059
leaf_weight=1.4697038577869537 6.8057340667583039 3.3520201770588764 1.1495097819715727 1.1187903005629776 0.8443513344973369 5.6144727617502195 0.63697738759219813 2.0847755884751664
leaf_count=37 98 35 2 4 3 10 28 13
internal_value=0 0.0219032 0.0435737 -0.0342564 -0.0256573 0.0609282 0.0544896 0.0174674
internal_weight=0 16.2706 11.7998 4.47081 2.31406 9.48574 8.33623 2.72175
internal_count=230 132 93 39 40 53 51 41
is_linear=0
shrinkage=0.08


Tree=83
num_leaves=8
num_cat=0
split_feature=0 11 6 6 11 7 20
split_gain=9.91861 0.814434 2.64876 0.676378 0.624853 0.322238 0.538484
threshold=-0.31073336013127556 0.05961738433975896 0.75542923898407921 0.21925296205462833 -0.38451764483707063 0.15651559518053643 7.8601810031373942
decision_type=2 2 2 2 2 2 2
left_child=1 2 3 -1 -4 6 -3
right_child=-2 5 4 -5 -6 -7 -8
leaf_value=0.0011334676465331412 -0.066897335009190748 0.010207702838007267 0.096076691956184276 -0.071486592563539911 0.017860216373951635 0.080164365111606684 0.06383225013862498
leaf_weight=1.560042593628171 8.0320183290168625 2.1438944227993471 2.065662564709783 1.4647953095845876 1.1883459016680715 3.2948732990771532 3.4857864081859589
leaf_count=13 107 9 5 60 21 6 9
internal_value=0 0.042689 0.0194222 -0.0333229 0.0694257 0.0584131 0.0443849
internal_weight=0 15.2034 6.27885 3.02484 3.25401 8.92455 5.62968
internal_count=230 123 99 73 26 24 18
is_linear=0
shrinkage=0.08


Tree=84
num_leaves=6
num_cat=0
split_feature=2 10 7 6 10
split_gain=3.70805 3.25455 3.92187 0.977305 1.8546
threshold=0.34508587299354282 -0.40150701032191422 0.17179232329324959 0.55162142840069939 0.82836854300322349
decision_type=2 2 2 2 2
left_child=1 -1 3 -3 -5
right_child=-2 2 -4 4 -6
leaf_value=-0.064930400696504881 -0.066669330914912506 -0.073201256915312013 0.069644777997199314 -0.067449144080810014 0.063175864824940545
leaf_weight=3.027137159369885 6.2743951650336376 1.7747898083180205 6.163820706307888 1.2450908226892354 1.4487115815281866
leaf_count=59 127 15 13 12 4
internal_value=0 0.00720032 0.0283188 -0.0279395 0.00121351
internal_weight=0 13.6596 10.6324 4.46859 2.6938
internal_count=230 103 44 31 16
is_linear=0
shrinkage=0.08


Tree=85
num_leaves=13
num_cat=0
split_feature=1 2 7 5 4 7 11 20 7 7 17 20
split_gain=2.72871 1.71286 4.66909 1.14621 0.688574 0.510766 2.28541 2.02791 0.79749 1.58799 0.485148 0.26797
threshold=0.42795839922092865 0.34508587299354282 0.11592158149270447 1.0000000180025095e-35 1.0000000180025095e-35 0.15446385526968762 -0.46671349713767624 13.364471582951575 0.18121489979862387 0.55885304968341509 2.5000000000000004 6.4008303455794753
decision_type=2 2 2 2 2 2 2 2 2 2 2 2
left_child=1 3 10 5 -5 6 -1 -8 11 -10 -3 -7
right_child=-2 2 -4 4 -6 8 7 -9 9 -11 -12 -13
leaf_value=-0.047111911934298395 -0.051725476154375186 0.0035033725621990363 0.095217575876321486 0.0022639940931724056 0.093747093887083632 -0.06481803540078955 0.14459100969243024 -0.025572790183232805 0.088420638902242069 -0.037603973909102466 -0.051422031243093393 -0.024864587570084681
leaf_weight=2.2627457529306416 6.274601273238658 1.7290832102298721 4.200397128239274 1.3534412533044808 0.92672457545995701 2.9528564512729627 1.0047438032925189 0.69682402163743962 0.91558849811553988 1.8278865367174146 2.0888854786753654 2.5014999024569988
leaf_count=8 15 13 89 12 16 7 16 3 18 8 10 15
internal_value=0 0.00767782 0.0373012 -0.008565 0.0423757 -0.0185773 0.00409789 0.0738813 -0.029986 0.00385253 -0.0257895 -0.0476134
internal_weight=0 22.4607 8.01837 14.4423 2.28017 12.1621 3.96431 1.70157 8.19783 2.74348 3.81797 5.45436
internal_count=230 215 112 103 28 75 27 19 48 26 23 22
is_linear=0
shrinkage=0.08


Tree=86
num_leaves=4
num_cat=0
split_feature=7 7 0
split_gain=14.4992 1.53546 1.95837
threshold=0.31232211792391112 0.34233661103092766 -0.19332936671497261
decision_type=2 2 2
left_child=-1 -2 -3
right_child=1 2 -4
leaf_value=-0.066111149549112389 0.093988237470290503 -0.066123095261431064 0.057736045352720852
leaf_weight=7.726472701411697 7.7975578606128675 0.89711403567343939 5.1730559887364507
leaf_count=175 2 40 13
internal_value=0 0.0701631 0.0383866
internal_weight=0 13.8677 6.07017
internal_count=230 55 53
is_linear=0
shrinkage=0.08


Tree=87
num_leaves=9
num_cat=0
split_feature=20 11 20 11 11 6 20 6
split_gain=5.47406 2.64568 2.00889 1.75049 1.7387 0.208926 1.09381 1.00888
threshold=10.058583731641063 -0.11608186801752009 4.8763310230062382 3.6558763476421698 -0.29438099536797441 0.24693429349648827 5.1225638281903274 0.59030505864307148
decision_type=2 2 2 2 2 2 2 2
left_child=1 2 4 -3 -1 -4 -7 -8
right_child=-2 3 5 -5 -6 6 7 -9
leaf_value=-0.081198356054021967 -0.06830305316507658 -0.065794841454505273 0.066785372366596069 0.046292499299000707 0.062775107039961628 0.093509410685590225 0.042609145034480649 -0.083960247095279411
leaf_weight=1.3684543133713307 6.1694235238246611 2.9864807333797225 6.2867671400308591 1.1791225802153347 0.79151532799005586 1.1166380960494282 0.93131755385547854 0.6233827848918736
leaf_count=37 98 33 12 6 3 2 10 29
internal_value=0 0.0206301 0.0411191 -0.0329456 -0.0264031 0.0579002 0.0346768 -0.00668304
internal_weight=0 15.2837 11.1181 4.1656 2.15997 8.95811 2.67134 1.5547
internal_count=230 132 93 39 40 53 41 39
is_linear=0
shrinkage=0.08


Tree=88
num_leaves=9
num_cat=0
split_feature=7 1 6 20 20 20 10 7
split_gain=6.61136 2.89527 0.961089 1.72348 0.720087 2.53808 0.195855 0.0367295
threshold=0.15692752638673468 1.0000000180025095e-35 0.1888888869622741 1.0778004060661239 4.0661758405222752 5.8895183598192729 -0.39854789606077295 0.14713109084983278
decision_type=2 2 2 2 2 2 2 2
left_child=1 2 3 -1 -4 -6 -7 -8
right_child=-2 -3 4 -5 5 6 7 -9
leaf_value=0.078654609694569694 -0.06600989358269814 -0.063442448700298373 0.084107900554396639 -0.067807886536748768 -0.067183403568970998 0.018952674632930242 0.069799437383551433 0.044411018223020279
leaf_weight=0.82398068904877009 6.0974136283621183 1.7407231228426088 3.4891328159719697 1.1859522867016492 1.1702428944408874 1.1231352891772957 4.1457721758633879 2.1110113877803087
leaf_count=1 119 37 9 15 13 12 12 12
internal_value=0 0.0316974 0.0439523 -0.00537139 0.0525058 0.0387306 0.0564029 0.0622877
internal_weight=0 15.79 14.0492 2.00993 12.0393 8.55016 7.37992 6.25678
internal_count=230 111 74 16 58 49 36 24
is_linear=0
shrinkage=0.08


Tree=89
num_leaves=6
num_cat=0
split_feature=2 10 6 6 6
split_gain=3.31734 2.88294 2.5479 1.98501 1.46498
threshold=0.34508587299354282 -0.40150701032191422 0.23154010194720648 0.55451287163628482 0.81343826139816133
decision_type=2 2 2 2 2
left_child=1 -1 -3 -4 -5
right_child=-2 2 3 4 -6
leaf_value=-0.064428648168419381 -0.06625606839258931 -0.071733709635689549 0.068131132540789716 -0.070331452942236458 0.049524584367705099
leaf_weight=2.7658985140733412 5.7064555166289201 1.3623267514631177 6.091148389503358 1.3777856156229975 1.1259187925606964
leaf_count=59 127 12 12 15 5
internal_value=0 0.00669268 0.0270716 0.0435198 -0.0149514
internal_weight=0 12.7231 9.95718 8.59485 2.5037
internal_count=230 103 44 32 20
is_linear=0
shrinkage=0.08


Tree=90
num_leaves=14
num_cat=0
split_feature=1 6 2 7 5 6 17 7 20 7 6 11 20
split_gain=2.3716 1.84172 1.51825 3.86879 0.765952 0.67352 0.56521 0.342345 1.3698 0.678916 1.5968 0.218733 0.155241
threshold=0.42795839922092865 0.16829934746328024 0.34508587299354282 0.11592158149270447 1.0000000180025095e-35 0.4809509624134411 2.5000000000000004 0.18121489979862387 11.770195556300747 0.15446385526968762 0.59736773943660249 -0.36446811598829959 6.4008303455794753
decision_type=2 2 2 2 2 2 2 2 2 2 2 2 2
left_child=1 11 4 6 7 -6 -4 9 -9 10 -3 -1 -11
right_child=-2 2 3 -5 5 -7 -8 8 -10 12 -12 -13 -14
leaf_value=0.056248119070539004 -0.049327438858110577 0.075046056778369161 0.0060541476293711621 0.088568781414549907 -0.0067042300920341783 0.083235514260003071 -0.058434627286266083 0.079743845313223316 -0.040186662454870431 -0.063282370433925345 -0.0384176351948591 0.14674796361959566 -0.028897649611456602
leaf_weight=0.7224058210849762 5.8204498551785937 1.0989572219550594 1.3910631090402596 3.6502479258924723 1.1358074098825461 0.83878316730260838 1.865956127643585 0.90822992473840836 1.6128311678767202 2.722641609609127 2.5011813417077065 0.50952774286270741 2.2764114178717136
leaf_count=9 15 12 11 84 9 16 9 21 4 7 11 9 13
internal_value=0 0.00804328 0.00187699 0.0322674 -0.0139108 0.0306375 -0.030007 -0.0222809 0.00217393 -0.029884 -0.00213297 0.101063 -0.0488581
internal_weight=0 21.234 20.0021 6.90727 13.0948 1.97459 3.25702 11.1203 2.52106 8.59919 3.60014 1.23193 4.99905
internal_count=230 215 197 104 93 25 20 68 25 43 23 18 20
is_linear=0
shrinkage=0.08


Tree=91
num_leaves=4
num_cat=0
split_feature=7 6 6
split_gain=12.6366 1.29108 1.83745
threshold=0.31232211792391112 0.13636878042510059 0.55451287163628482
decision_type=2 2 2
left_child=-1 -2 -3
right_child=1 2 -4
leaf_value=-0.065734837163834478 0.089415044436651284 -0.066232265156518033 0.056344608372403508
leaf_weight=7.0116765946149853 7.3633119314908964 0.8625187980942427 4.7838608594611287
leaf_count=175 2 25 28
internal_value=0 0.0669836 0.036501
internal_weight=0 13.0097 5.64638
internal_count=230 55 53
is_linear=0
shrinkage=0.08


Tree=92
num_leaves=7
num_cat=0
split_feature=20 3 0 7 20 18
split_gain=4.80098 1.63368 1.54043 0.775188 1.62669 0.76775
threshold=10.058583731641063 1.2519292040972998 -0.31073336013127556 0.14711606892105797 9.8538714260799605 1.0000000180025095e-35
decision_type=2 2 2 2 2 2
left_child=1 2 3 5 -5 -1
right_child=-2 -3 -4 4 -6 -7
leaf_value=0.071450789194627551 -0.06771334181470097 0.050826443220374606 -0.06754587357816956 -0.063398828568443602 0.071480944307499406 0
leaf_weight=1.977875554934144 5.5806176532059899 6.0516815371811381 1.825846544001253 1.7110692998394372 0.78126049041748036 1.9564448026940227
leaf_count=6 98 19 41 53 1 12
internal_value=0 0.0193952 -0.00333929 0.0146652 -0.018971 0.0369478
internal_weight=0 14.3042 8.2525 6.42665 2.49233 3.93432
internal_count=230 132 113 72 54 18
is_linear=0
shrinkage=0.08


Tree=93
num_leaves=9
num_cat=0
split_feature=0 6 20 20 7 20 6 6
split_gain=7.6584 0.663995 0.719407 2.07879 0.731291 1.03758 0.758744 0.0123867
threshold=-0.31073336013127556 0.1888888869622741 4.0661758405222752 5.8895183598192729 0.14712518180897033 5.9530484040033107 0.76484368064186803 0.24942741008720007
decision_type=2 2 2 2 2 2 2 2
left_child=1 -1 7 -4 -5 -6 -7 -3
right_child=-2 2 3 4 5 6 -8 -9
leaf_value=-0.0046538920404722616 -0.066109888976611297 0.10014382182520505 -0.065579374086575451 0.06677138095170769 0.082738892357116664 -0.069304313202100273 0.028592070329595418 0.063731803487901806
leaf_weight=1.8315886864438677 6.6401967285200945 1.0022046566009515 1.140377005096523 4.6561722680926323 0.87532746791839633 0.95068728504702427 0.9171399949118495 2.3819182626903057
leaf_count=13 107 1 25 13 1 41 11 18
internal_value=0 0.0381474 0.045048 0.0315534 0.0474001 0.0124809 -0.0196574 0.076981
internal_weight=0 13.7554 11.9238 8.5397 7.39933 2.74315 1.86783 3.38412
internal_count=230 123 110 91 66 53 52 19
is_linear=0
shrinkage=0.08


Tree=94
num_leaves=6
num_cat=0
split_feature=2 10 7 6 10
split_gain=2.90697 2.51404 3.04243 0.798882 1.45792
threshold=0.34508587299354282 -0.40150701032191422 0.17179232329324959 0.55162142840069939 0.82836854300322349
decision_type=2 2 2 2 2
left_child=1 -1 3 -3 -5
right_child=-2 2 -4 4 -6
leaf_value=-0.063917511980380162 -0.065787859210936397 -0.070872486795719059 0.06438217269172658 -0.065178357306380358 0.058164240575734868
leaf_weight=2.5209232228808096 5.1457060221582642 1.5588997341692468 5.3732272423803806 1.0722662694752219 1.2989987730979917
leaf_count=59 127 15 13 12 4
internal_value=0 0.00573687 0.0252794 -0.0273131 0.000543525
internal_weight=0 11.8243 9.30339 3.93016 2.37127
internal_count=230 103 44 31 16
is_linear=0
shrinkage=0.08


Tree=95
num_leaves=14
num_cat=0
split_feature=10 6 20 6 6 20 4 11 10 0 6 7 7
split_gain=2.13584 1.29639 0.89665 1.34961 0.759555 1.31154 0.950396 0.954809 0.723065 0.517429 0.496623 1.02346 0.386389
threshold=-0.50761208764851429 0.82038098232322654 12.323258556358189 0.45120928985903969 0.57414089549671532 6.5108145278789058 1.0000000180025095e-35 1.6361894944416897 -0.46448745860266033 -0.19332936671497261 0.4676978474784062 0.15651559518053643 0.12820981842240473
decision_type=2 2 2 2 2 2 2 2 2 2 2 2 2
left_child=-1 2 4 -4 6 9 7 8 -2 -6 -5 -12 -8
right_child=1 -3 3 10 5 -7 12 -9 -10 -11 11 -13 -14
leaf_value=-0.049766099748770457 0.058290311915095913 0.086944697836438808 0.085296775256072321 -0.06065744346446518 -0.034409137978554334 0.10097165382050456 -0.0083697158346416507 0.029354695527963767 -0.044643035863340313 0.036320826553853186 -0.032593697669496428 0.07772255114002144 0.062749691807618482
leaf_weight=5.0228642430156496 0.38858736865222798 1.2078957054764021 1.8583507277071465 0.65371876955032382 1.5462385714054112 0.98817493952810753 0.66646899282932359 1.4732417576014993 7.5115470290184021 1.0598003566265097 1.0918344482779505 0.93182898312807072 1.1275079138576982
leaf_count=14 12 30 38 1 9 21 4 13 32 13 7 21 15
internal_value=0 0.00814209 0.00279082 0.0338406 -0.00656171 0.0247543 -0.0170628 -0.0275157 -0.0387421 -0.00399705 -0.00131706 0.0169235 0.0346488
internal_weight=0 20.5052 19.2973 4.53573 14.7616 3.59421 11.1674 9.37338 7.90013 2.60604 2.67738 2.02366 1.79398
